filename,label,embed_0,embed_1,embed_2,embed_3,embed_4,embed_5,embed_6,embed_7,embed_8,embed_9,embed_10,embed_11,embed_12,embed_13,embed_14,embed_15,embed_16,embed_17,embed_18,embed_19,embed_20,embed_21,embed_22,embed_23,embed_24,embed_25,embed_26,embed_27,embed_28,embed_29,embed_30,embed_31,embed_32,embed_33,embed_34,embed_35,embed_36,embed_37,embed_38,embed_39,embed_40,embed_41,embed_42,embed_43,embed_44,embed_45,embed_46,embed_47,embed_48,embed_49,embed_50,embed_51,embed_52,embed_53,embed_54,embed_55,embed_56,embed_57,embed_58,embed_59,embed_60,embed_61,embed_62,embed_63,embed_64,embed_65,embed_66,embed_67,embed_68,embed_69,embed_70,embed_71,embed_72,embed_73,embed_74,embed_75,embed_76,embed_77,embed_78,embed_79,embed_80,embed_81,embed_82,embed_83,embed_84,embed_85,embed_86,embed_87,embed_88,embed_89,embed_90,embed_91,embed_92,embed_93,embed_94,embed_95,embed_96,embed_97,embed_98,embed_99,embed_100,embed_101,embed_102,embed_103,embed_104,embed_105,embed_106,embed_107,embed_108,embed_109,embed_110,embed_111,embed_112,embed_113,embed_114,embed_115,embed_116,embed_117,embed_118,embed_119,embed_120,embed_121,embed_122,embed_123,embed_124,embed_125,embed_126,embed_127,embed_128,embed_129,embed_130,embed_131,embed_132,embed_133,embed_134,embed_135,embed_136,embed_137,embed_138,embed_139,embed_140,embed_141,embed_142,embed_143,embed_144,embed_145,embed_146,embed_147,embed_148,embed_149,embed_150,embed_151,embed_152,embed_153,embed_154,embed_155,embed_156,embed_157,embed_158,embed_159,embed_160,embed_161,embed_162,embed_163,embed_164,embed_165,embed_166,embed_167,embed_168,embed_169,embed_170,embed_171,embed_172,embed_173,embed_174,embed_175,embed_176,embed_177,embed_178,embed_179,embed_180,embed_181,embed_182,embed_183,embed_184,embed_185,embed_186,embed_187,embed_188,embed_189,embed_190,embed_191,embed_192,embed_193,embed_194,embed_195,embed_196,embed_197,embed_198,embed_199,embed_200,embed_201,embed_202,embed_203,embed_204,embed_205,embed_206,embed_207,embed_208,embed_209,embed_210,embed_211,embed_212,embed_213,embed_214,embed_215,embed_216,embed_217,embed_218,embed_219,embed_220,embed_221,embed_222,embed_223,embed_224,embed_225,embed_226,embed_227,embed_228,embed_229,embed_230,embed_231,embed_232,embed_233,embed_234,embed_235,embed_236,embed_237,embed_238,embed_239,embed_240,embed_241,embed_242,embed_243,embed_244,embed_245,embed_246,embed_247,embed_248,embed_249,embed_250,embed_251,embed_252,embed_253,embed_254,embed_255,embed_256,embed_257,embed_258,embed_259,embed_260,embed_261,embed_262,embed_263,embed_264,embed_265,embed_266,embed_267,embed_268,embed_269,embed_270,embed_271,embed_272,embed_273,embed_274,embed_275,embed_276,embed_277,embed_278,embed_279,embed_280,embed_281,embed_282,embed_283,embed_284,embed_285,embed_286,embed_287,embed_288,embed_289,embed_290,embed_291,embed_292,embed_293,embed_294,embed_295,embed_296,embed_297,embed_298,embed_299,embed_300,embed_301,embed_302,embed_303,embed_304,embed_305,embed_306,embed_307,embed_308,embed_309,embed_310,embed_311,embed_312,embed_313,embed_314,embed_315,embed_316,embed_317,embed_318,embed_319,embed_320,embed_321,embed_322,embed_323,embed_324,embed_325,embed_326,embed_327,embed_328,embed_329,embed_330,embed_331,embed_332,embed_333,embed_334,embed_335,embed_336,embed_337,embed_338,embed_339,embed_340,embed_341,embed_342,embed_343,embed_344,embed_345,embed_346,embed_347,embed_348,embed_349,embed_350,embed_351,embed_352,embed_353,embed_354,embed_355,embed_356,embed_357,embed_358,embed_359,embed_360,embed_361,embed_362,embed_363,embed_364,embed_365,embed_366,embed_367,embed_368,embed_369,embed_370,embed_371,embed_372,embed_373,embed_374,embed_375,embed_376,embed_377,embed_378,embed_379,embed_380,embed_381,embed_382,embed_383,embed_384,embed_385,embed_386,embed_387,embed_388,embed_389,embed_390,embed_391,embed_392,embed_393,embed_394,embed_395,embed_396,embed_397,embed_398,embed_399,embed_400,embed_401,embed_402,embed_403,embed_404,embed_405,embed_406,embed_407,embed_408,embed_409,embed_410,embed_411,embed_412,embed_413,embed_414,embed_415,embed_416,embed_417,embed_418,embed_419,embed_420,embed_421,embed_422,embed_423,embed_424,embed_425,embed_426,embed_427,embed_428,embed_429,embed_430,embed_431,embed_432,embed_433,embed_434,embed_435,embed_436,embed_437,embed_438,embed_439,embed_440,embed_441,embed_442,embed_443,embed_444,embed_445,embed_446,embed_447,embed_448,embed_449,embed_450,embed_451,embed_452,embed_453,embed_454,embed_455,embed_456,embed_457,embed_458,embed_459,embed_460,embed_461,embed_462,embed_463,embed_464,embed_465,embed_466,embed_467,embed_468,embed_469,embed_470,embed_471,embed_472,embed_473,embed_474,embed_475,embed_476,embed_477,embed_478,embed_479,embed_480,embed_481,embed_482,embed_483,embed_484,embed_485,embed_486,embed_487,embed_488,embed_489,embed_490,embed_491,embed_492,embed_493,embed_494,embed_495,embed_496,embed_497,embed_498,embed_499,embed_500,embed_501,embed_502,embed_503,embed_504,embed_505,embed_506,embed_507,embed_508,embed_509,embed_510,embed_511,embed_512,embed_513,embed_514,embed_515,embed_516,embed_517,embed_518,embed_519,embed_520,embed_521,embed_522,embed_523,embed_524,embed_525,embed_526,embed_527,embed_528,embed_529,embed_530,embed_531,embed_532,embed_533,embed_534,embed_535,embed_536,embed_537,embed_538,embed_539,embed_540,embed_541,embed_542,embed_543,embed_544,embed_545,embed_546,embed_547,embed_548,embed_549,embed_550,embed_551,embed_552,embed_553,embed_554,embed_555,embed_556,embed_557,embed_558,embed_559,embed_560,embed_561,embed_562,embed_563,embed_564,embed_565,embed_566,embed_567,embed_568,embed_569,embed_570,embed_571,embed_572,embed_573,embed_574,embed_575,embed_576,embed_577,embed_578,embed_579,embed_580,embed_581,embed_582,embed_583,embed_584,embed_585,embed_586,embed_587,embed_588,embed_589,embed_590,embed_591,embed_592,embed_593,embed_594,embed_595,embed_596,embed_597,embed_598,embed_599,embed_600,embed_601,embed_602,embed_603,embed_604,embed_605,embed_606,embed_607,embed_608,embed_609,embed_610,embed_611,embed_612,embed_613,embed_614,embed_615,embed_616,embed_617,embed_618,embed_619,embed_620,embed_621,embed_622,embed_623,embed_624,embed_625,embed_626,embed_627,embed_628,embed_629,embed_630,embed_631,embed_632,embed_633,embed_634,embed_635,embed_636,embed_637,embed_638,embed_639,embed_640,embed_641,embed_642,embed_643,embed_644,embed_645,embed_646,embed_647,embed_648,embed_649,embed_650,embed_651,embed_652,embed_653,embed_654,embed_655,embed_656,embed_657,embed_658,embed_659,embed_660,embed_661,embed_662,embed_663,embed_664,embed_665,embed_666,embed_667,embed_668,embed_669,embed_670,embed_671,embed_672,embed_673,embed_674,embed_675,embed_676,embed_677,embed_678,embed_679,embed_680,embed_681,embed_682,embed_683,embed_684,embed_685,embed_686,embed_687,embed_688,embed_689,embed_690,embed_691,embed_692,embed_693,embed_694,embed_695,embed_696,embed_697,embed_698,embed_699,embed_700,embed_701,embed_702,embed_703,embed_704,embed_705,embed_706,embed_707,embed_708,embed_709,embed_710,embed_711,embed_712,embed_713,embed_714,embed_715,embed_716,embed_717,embed_718,embed_719,embed_720,embed_721,embed_722,embed_723,embed_724,embed_725,embed_726,embed_727,embed_728,embed_729,embed_730,embed_731,embed_732,embed_733,embed_734,embed_735,embed_736,embed_737,embed_738,embed_739,embed_740,embed_741,embed_742,embed_743,embed_744,embed_745,embed_746,embed_747,embed_748,embed_749,embed_750,embed_751,embed_752,embed_753,embed_754,embed_755,embed_756,embed_757,embed_758,embed_759,embed_760,embed_761,embed_762,embed_763,embed_764,embed_765,embed_766,embed_767
/kaggle/input/shl-intern-hiring-assessment/Dataset/audios/train/audio_710.wav,1.0,0.09059777,-0.08204694,-0.06426472,0.13938761,0.0071446598,-0.16627431,0.19129068,-0.042637,0.006061305,0.14277296,0.019740643,0.03133962,-0.06416149,0.18912098,0.014929894,-0.035856508,0.34132484,0.033214774,-0.033659365,-0.20862386,-0.24148615,-0.06244299,-1.3114611,0.16369033,0.32056022,-0.05859486,0.4288481,-0.014578459,-0.27116433,-0.08563898,-0.049038485,-0.008457105,0.016998427,-0.012264871,-0.051931303,0.21362995,-0.33940887,0.116349295,-0.019233549,-0.1523299,-0.067956194,-0.23770528,-0.075465396,-0.14213602,-0.2973615,-0.38303548,-0.107617326,0.057822444,0.2914995,-0.3305986,-0.057495557,0.1701073,0.22277403,0.075535595,0.18220598,0.15702477,0.077063344,-0.11354045,0.046498757,-0.001071977,-0.21639113,0.0993201,-0.023431862,0.32043117,-0.3148817,0.02576092,0.022643799,-0.084234275,-0.14431499,0.20746605,0.19036984,0.071550265,0.016042687,0.2414872,0.121846594,0.081626795,0.16499639,0.0513533,-0.10460712,0.11993879,0.30992782,0.25116277,0.09250387,-0.31141445,-0.05400218,0.26846796,0.07701717,-0.16793442,0.005598948,-0.13042365,-0.11527091,-0.11757196,0.12985457,-0.08167655,-0.418541,0.1986355,-0.10255782,0.08873108,0.09153089,-0.020014973,0.063219786,-0.45222175,-0.052649457,0.114989676,0.04215397,-0.37900162,-0.076781385,0.08222009,-0.12842815,0.13575338,-0.09468937,0.17284936,0.043425787,-0.040194463,0.17175376,0.18133596,-0.018464081,-0.19211145,-0.039344456,-0.057463642,-0.10833478,-0.027163312,-0.16121632,-0.14666602,-0.117559224,0.37285468,0.3203554,-0.047679532,0.22991051,-0.064257205,0.29367495,0.2943978,-0.17449751,0.24660139,-0.05678409,0.2523309,-0.29894152,0.050346132,0.25978884,0.46949908,0.0893995,0.07542329,-0.1357097,-0.061061308,0.17531325,-0.004156113,-1.157973,-0.09302214,-0.20414017,0.09293725,0.33925793,0.12700105,2.1674892e-05,1.5916821,-0.04659923,-0.12813888,-0.11826895,-0.18750905,-0.091696024,-0.009949148,0.14042817,-0.024175312,-0.11284033,-0.06700476,-0.0694943,-0.013892322,0.21576238,-0.16866511,0.12571757,-0.29710293,-0.09717182,-0.14265168,0.14674714,0.09179864,-0.1618511,0.1591565,0.02672492,-0.10140304,-0.08420436,-0.27679443,0.10902368,0.09555757,-0.057262488,-0.030364973,-0.5309714,0.08277773,0.3435808,0.1982154,0.061218947,0.034832004,-0.17719357,-0.030407978,-0.090326436,0.011545924,-0.010606129,0.18418995,0.31976536,0.01307343,-0.1059017,0.02907492,0.08348043,-0.054335117,-0.5102084,0.36678258,0.045751307,-0.03208866,0.115269765,0.112462245,0.008083458,0.05593074,0.19642925,-0.022210374,-0.09527122,0.13714102,-0.054214653,-0.06294334,-0.14096764,-0.08028899,-0.19236004,-0.054228105,0.24825905,-0.07918017,-0.058811612,-0.27323994,-0.021703027,0.16238068,-0.06263517,0.05792186,-0.17062867,-0.050205622,-0.12003765,-0.13315877,-0.14898081,0.23135053,0.17544748,0.10418677,-0.057278372,-0.11651688,0.14095438,0.0053637787,0.1976381,0.3982013,-0.040145524,0.06131512,0.1411493,0.085965365,0.16070586,-0.063530765,0.08328202,-0.037988067,-0.020414254,0.021383818,0.061709885,0.20475866,-0.021919487,-0.18889643,0.17850122,0.05771274,0.021572517,-0.50615567,-0.13725066,-0.115228936,-0.03359435,0.036618922,-0.88208044,0.21613455,0.063991345,-0.022818504,-0.0062024132,-0.02715518,-0.06575385,0.115597226,-0.062208522,0.056612357,0.11114382,0.26377365,0.05154246,0.012089423,0.045120884,0.33952168,-0.020608684,0.3226321,0.054038193,0.06415137,0.09588495,-0.24165754,0.10541276,0.1993462,0.0507203,-0.27639186,-0.30480716,0.5861524,-0.09047672,0.10940217,-0.13538174,-0.1772576,-0.012211237,-0.1722519,0.112111576,-0.06623766,-0.08028488,-0.6774196,-0.13087283,0.07073674,0.18628904,-0.1483751,-0.0984608,0.15895794,-0.10518481,0.03578398,0.6202422,0.26432902,-0.10689328,0.008606855,0.0030532535,0.15660532,0.1369505,-0.1848549,-0.052474584,0.23382822,0.093622886,0.15885453,-0.26044825,0.14539841,0.19977762,-0.27011177,0.7438084,-0.06502825,-0.052935325,0.08930998,0.126207,-0.22046466,-0.17800172,-0.03730115,-0.12680839,-0.15026818,0.079373606,-0.009059163,-0.11100244,-0.043557253,-0.037020147,0.3552968,0.024747768,-0.010338189,-0.043289565,0.23567657,-0.1065194,0.27254972,0.10630915,0.034870833,0.046513177,-0.22117169,1.2782996,-0.075904615,0.073098004,0.22684537,-0.011709533,-0.013545013,0.11732345,0.01743153,-0.048378866,0.23946697,0.22026059,-0.04180251,0.0041225324,-0.8466333,-0.15232903,-0.1740332,0.17403373,-0.090178214,-0.2322106,0.16857891,-0.047972746,-0.06620889,-0.5156001,0.14284396,-0.119326815,-0.1572344,0.14867646,-0.103572935,-0.10685087,0.03893793,0.023815412,0.09640861,-0.013009174,-0.069712296,-0.11137468,0.2098768,0.13558982,-0.2707165,0.1511525,0.13918492,0.029371293,-0.18266353,-0.2156247,0.830486,0.022198122,-0.06617408,0.17880288,-0.12818119,0.119232364,0.23559733,-0.022510406,-0.119663194,-0.032102592,0.11288366,0.3013366,-0.19167693,0.004904793,-0.42362085,0.22220062,0.052945722,-0.20886847,-0.05999026,-0.106316306,-0.14438228,0.04880417,-0.28735277,0.030934697,-0.14788388,0.13540706,-0.21997659,0.11005393,0.27240145,-0.03736113,0.15751326,0.065799445,-0.0152018145,0.10167628,0.3230746,0.042444464,0.022515453,0.5344728,0.14376368,-0.007960422,-0.0783917,-0.33984232,0.23921706,-0.16052048,-0.57090294,-0.30367753,0.07058488,0.21552315,0.03588967,0.11008523,0.0102347955,0.17560272,0.08724727,-0.04538766,0.052832644,0.051780377,0.08341465,-0.23507728,-0.12554589,0.0715842,0.06337311,0.01801527,-0.047707897,0.13788964,-0.10680332,-0.36473438,0.0465011,0.014473479,0.088706456,0.2229548,0.005164672,0.16127214,0.088680245,-0.19631265,-0.09750691,-0.12091091,0.1540746,0.18957353,-0.260028,-0.17323436,0.022766037,0.011840482,0.38295686,-0.2572857,-0.2264645,-0.921721,0.09862303,-0.24878894,-0.10549021,-0.033583175,0.3604633,0.2993085,-0.30044734,-0.09001184,0.18021047,-0.11569662,-0.49289006,-0.03311084,0.008891923,-0.16645506,1.1389292,-0.17960687,-0.18184638,0.16822457,-0.13217911,-0.21007343,-0.016915377,-0.010828594,-0.024242565,-0.08078366,-0.04498678,-0.0032260125,0.37010637,-0.046659455,0.0017542796,-0.22715671,0.045557518,-0.04554387,0.26569194,-0.08158396,0.11440402,0.2682289,0.2441342,-0.07869622,0.11494623,-0.072748944,0.045202985,0.13419253,0.010046173,-0.010172851,0.030302638,-0.15408826,-0.11786139,-0.32553247,0.18570077,0.012776985,0.14884442,-0.10807199,0.12987098,-0.19639267,0.051100988,0.28252634,-0.21850833,0.35946915,0.029379586,-0.3300372,-0.057040866,0.026942575,-0.1195874,0.7164874,-0.22360322,-0.03291334,0.7546256,0.13138194,-0.013484133,0.19958167,-0.063024476,0.07111193,-0.1018671,0.07629059,0.22708458,0.07094478,-0.12750964,0.1887622,0.034275234,0.013523372,0.09597966,-0.11046189,-0.03281212,0.14044918,0.020986484,0.003520938,0.45466056,0.1246222,0.15076417,0.27581814,-0.14254339,-0.12961216,0.0122285625,-0.119066216,0.12937981,0.15095896,0.16912088,-0.2392295,0.3041368,0.1202006,-1.5265354,-0.018214628,-0.033636153,-0.21854232,0.013674302,-0.090931274,0.09232648,0.008043332,-0.023298305,-0.013035489,0.022239752,0.15412998,0.25733894,-0.6358026,-0.17921124,-0.101400316,-0.1462049,-0.078757495,-0.085366234,-0.111787274,-0.0008157809,0.18158297,-0.11359951,0.07171971,0.01567873,-0.09230063,0.08845122,0.018137623,-0.3549718,-0.054987837,-0.22956435,0.069739714,-0.14301719,0.2599294,-0.32750848,-0.09708742,-0.017055005,0.19403017,-0.72902435,-0.24617232,0.05181323,0.029733155,0.012960476,0.2132414,0.045721754,-0.11276012,0.06852518,0.3604624,0.0088298265,-0.013496543,-0.0121828765,-0.5542908,0.11620963,-0.17546102,0.19641046,-0.08373161,-0.017860336,-0.08044866,-0.022618929,-0.24973157,-0.74699616,0.29636326,-0.101752676,0.22163273,-0.10176369,-0.06789252,-0.10968022,0.26698816,0.03023557,-0.03372182,-0.18650587,0.10860762,-0.15552448,0.25818342,-0.012177642,0.12809153,-0.024779351,-0.5471773,-0.023777775,-0.3779766,0.016716115,-0.32452264,-0.012889623,-0.1309872,-0.21372898,0.100581564,-0.016609548,-0.118970014,-0.11966049,0.13816357,-0.26057124,-0.13940163,0.019997032,-0.054870497,0.01649962,-0.23852026,0.15197313,0.15210822,-0.0854056,0.050481226,0.11029609,0.22313325,0.34668955,0.37161633,0.019097144,-0.35457107,0.55173576,-0.18077505,-0.1278462,0.113388985,-0.12544064,0.19294645,-0.17995836,-0.060697246,0.1961354,0.118155845,-0.07172025,0.14637366,0.08009947,0.22640973,0.025241923,0.095219515,-0.13924083,0.16925362,0.0713596,0.037907563,-0.19249593,-0.07623189,0.0311618,-0.20846938,-0.040328506,-0.057858024,-0.015811825,-0.04838483,0.1672817,0.05360121,0.11972761,0.06580307,0.021446532,0.12196409,0.32444507,0.057501808,0.03259486,-0.10432263,-0.030592557,-0.04009469,-0.040719934,0.052073188,-0.21849008,0.03789192,-0.19278967,0.30870023,0.09468436,-0.2133511,0.12553288,0.20789604,-0.03518738,0.012667766,0.021221604,-0.2425335,-0.13084313,-0.16616106,-0.014309664,-0.06671768,-0.31923664,-0.059285846,-0.33934638,0.11315309,-0.086409986,-0.086531915,-0.18414351,-0.23491932,0.042446133,0.24052341,0.2014736,0.028053245,-0.031321283,0.17836769,0.0132947415,-0.19984993,-0.018124204,-0.32457715,0.0018397958,-0.17668846,0.21598577,0.1849612,-0.29870224
/kaggle/input/shl-intern-hiring-assessment/Dataset/audios/train/audio_1265.wav,1.0,-0.18413822,0.07883087,-0.009512602,0.1392765,0.3223893,-0.35595673,0.15380493,-0.2229353,-0.10204188,-0.18380743,-0.4259686,0.6744323,0.32850152,0.24152462,0.09638418,0.024927557,0.55028474,0.12041237,-0.057649747,-0.5286041,-0.010510527,-0.16215931,0.4851049,0.26177838,0.3274715,0.032133523,0.031546135,-0.16850272,0.030080535,0.0057034385,-0.16468176,-0.08248614,-0.37881982,0.026985431,0.044449944,0.11653714,-0.115878604,0.14036094,0.10621073,-0.14512259,-0.293801,-0.116995916,-0.073070124,-0.29130507,-0.65015817,-0.18306716,-0.26654923,0.10657695,-0.03881583,-0.16627517,-0.017794533,0.162381,0.38088506,0.009606898,0.2121121,0.0068329447,0.05745842,0.1105645,0.10372361,-0.15119958,-0.24673596,-0.06230703,-0.03520952,0.013413174,-0.27710325,0.0742361,-0.16856132,-0.22736211,-0.09182706,0.11805873,0.11225198,-0.10908443,0.15403311,0.044560652,0.09038293,0.65487355,0.5330872,-0.042269707,-0.23015729,-0.13764684,0.16792853,0.030253783,-0.047041103,0.07719023,-0.049082316,0.27807158,-0.0295805,0.023789726,-0.20017551,-0.037636105,-0.70218915,-0.27875075,-0.02749747,-0.0974107,-0.37261802,0.071185455,0.5906985,-0.2679051,-0.019962579,-0.089288235,-0.03926158,-0.09584432,-0.16562481,0.060299356,0.12826298,0.13977271,0.0910785,-0.08771155,-0.106835656,0.27912098,-0.075145885,0.20799984,0.21229152,0.08648852,-0.07122204,0.19615155,-0.07167103,-0.34574378,-0.028714286,-0.2743839,-0.41738135,-0.064387634,0.21298529,0.00220418,-0.17701252,0.08644775,0.40839076,-0.12173303,0.42942765,-0.5988515,0.40865692,0.30952668,0.00011495117,-0.22117282,-0.1859906,0.44768366,-0.22937693,0.019609414,0.12156052,0.07511864,0.019242166,-0.21881841,0.10678057,-0.109921955,-0.11404757,-0.01156068,-0.45650166,0.04463401,0.13962445,0.3610952,0.012642826,0.24379908,-0.1705616,-0.4710005,0.11349063,-0.14150392,-0.045998536,0.053266592,-0.2363042,-0.006796924,0.20504227,-0.016179267,0.009629478,-0.046590503,-0.19430564,-0.23056206,0.43348032,0.4075314,0.242619,-0.35377714,0.073565945,0.106884934,-0.19682969,-0.04174936,-0.110203646,0.4707419,-0.2654291,-0.067473374,-0.09331463,-0.19969916,-0.39065182,-0.024272721,-0.10985326,-0.0331354,-0.4043256,0.18766122,0.10527563,0.36491233,0.026644802,-0.193361,0.3551724,0.010869674,-0.05896869,0.014398666,-0.12566671,0.13085838,0.22028376,0.044981945,-0.2199879,0.10386021,0.13755573,0.002606345,-0.4992319,-0.09167705,0.07604891,-0.3708873,0.024915203,0.019499395,0.022500034,0.21432063,0.36251584,-0.21413295,-0.19532908,-0.2159251,-0.24540693,0.046352245,-0.36705935,-0.110340886,-0.113202736,-0.046418343,-0.051627163,-0.22264162,-0.03529484,-0.034214288,0.10794556,0.2429077,0.061212763,0.17644747,0.08863294,0.20986193,-0.0033574328,0.23486628,0.015583757,0.06614912,0.28781757,0.05075956,0.022927184,0.0960214,0.036554746,-0.22893329,-0.6559076,-0.01575202,0.030319996,0.27815154,0.35032633,0.08348672,0.056007043,0.11591303,0.37292123,0.0068815085,0.07292393,-0.1172751,0.23006412,0.11404478,0.18477985,-0.2460345,0.26909214,0.2875202,0.19117457,-0.12962309,-0.32295063,-0.34313253,-0.38604698,0.35107875,-0.5457296,0.3011977,-0.07971156,0.05178015,-0.056218047,0.036310013,0.041412074,0.3515233,0.088871524,0.07889166,0.14176743,0.43799144,0.039354853,-0.10469534,0.31000313,-0.088706054,-0.1390404,0.061107825,-0.025557693,0.091922946,0.40515745,-0.039789163,-0.124907956,-0.041041583,0.048622627,-0.18690716,-0.11651988,0.3291035,-0.30104318,0.21456304,-0.09795191,-0.08331687,0.06444313,-0.10626948,-0.2704948,-0.10213243,-0.08609361,-0.49577984,-0.26174375,0.08076467,-0.04992383,-0.30457464,0.40464187,0.2786117,0.024259878,0.17969494,0.53021,0.55875164,-0.22395638,0.24526481,-0.1641043,-0.06367467,0.08877511,-0.22283794,-0.21646018,0.16937347,-0.0875679,0.0566773,0.5874903,0.25171214,-0.08740437,-0.2715768,0.5256781,-0.25752884,0.102858506,0.17207678,0.161893,-0.20275334,-0.05619194,0.04406138,-0.18891495,0.091096655,-0.28148657,0.021598836,-0.26734114,-0.18544783,0.34548962,0.1441179,-0.019547306,-0.10768012,-0.23770924,0.29298908,-0.048410855,-0.2554184,0.050799984,-0.18650253,0.07891451,-0.07708515,-0.33208296,0.13605417,0.1702165,0.2563207,-0.083432235,-0.018236754,0.13410273,-0.090553,0.16558743,-0.045874815,-0.009423115,-0.13743865,-0.020019488,-0.022254819,0.09242438,-0.1566213,-0.11932165,-0.17930937,-0.19287215,-0.64005554,-0.13851023,-0.053670328,-0.21803567,-0.029046554,0.019862575,-0.38545865,0.17695048,0.07808582,-0.10347459,0.07639145,0.047141388,0.44996017,-0.7295557,0.1596922,-0.50863856,0.06177218,0.0027379852,0.28606898,0.024797605,-0.3229044,-0.3446846,-0.5475374,0.3685306,0.3563597,-0.16926987,0.012869389,0.50067973,-0.012356517,-0.0404302,0.2497249,-0.04765068,-0.34359616,-0.15424341,-0.03197636,0.42612156,0.049427465,-0.10028584,-0.20574288,0.09160881,0.42017958,-0.23214158,0.028724937,0.22012663,-0.21588336,0.074623056,-0.19350621,0.32327434,0.036018558,0.14462686,-0.39758626,-0.12737982,-0.45866007,-0.1455824,0.22274975,0.037884522,0.25678325,0.21301255,0.2797865,0.07820783,0.19709526,0.226907,0.18308556,-0.027644083,0.1476679,-0.073141634,0.21619469,0.09673283,-0.6619457,-0.29563245,0.13936505,0.26490143,-0.12846904,0.056458764,-0.16757545,-0.019807369,-0.046354953,-0.22454686,0.027473396,-0.15902844,-0.04271695,-0.16486134,-0.24643369,-0.03166364,0.08306932,0.12463095,0.08771565,0.19757102,-0.10057026,-0.29888397,-0.07974289,-0.07751586,0.05247487,0.020212691,0.2065398,0.08441673,0.3432365,-0.15661532,-0.1995024,-0.06773532,-0.059941668,0.06195277,0.047994673,0.057883754,0.024213353,0.01696758,0.2541447,-0.36280385,-0.386326,-0.8448821,0.0505178,-0.1914195,-0.071202196,-0.07962888,0.10401731,0.0018860851,0.001447502,0.08260294,0.36487666,-0.17047475,0.09076401,0.090845056,-0.051230893,-0.063953355,0.03566733,-0.09289669,-0.2409783,0.13247678,0.056628663,-0.059274483,0.15700808,0.11381404,-0.15563212,-0.22336233,-0.14059311,-0.09373146,0.2559912,0.18289664,-0.08567059,-0.0088718,0.23243451,0.17921206,-0.016731817,-0.0992272,0.12856455,0.2490429,0.11928212,0.26360095,0.10003194,-0.25967342,0.064946935,0.1804527,0.04965749,-0.21217635,-0.29218203,0.11424431,-0.18294285,-0.34043422,0.44291046,-0.12054579,0.32303685,-0.1422356,-0.110935695,0.34322464,0.14070563,0.19257776,-0.14845872,0.46202755,0.12705092,-0.08547413,-0.23751736,-0.23326771,-0.11750872,0.7419545,-0.18779533,0.08687892,0.053269066,-0.018637752,-0.05938485,0.6915712,0.28988236,0.0049428,-0.20686261,-0.12092934,0.33818933,0.10906244,-0.0386006,0.17591953,0.13151607,0.060845617,0.18391983,0.038011074,0.035845093,-0.18429972,0.0536593,-0.0830337,-0.03246143,0.18562824,0.21667874,0.31497103,-0.40184212,0.24378996,-0.039237723,0.4811618,-0.1455189,0.55712086,-0.22326493,-0.105682835,0.22291343,-0.061609898,-0.051812932,0.009691338,0.0061216373,0.14196593,0.10688488,-0.10122846,-0.13332441,0.06725826,0.073599026,0.05322799,0.2652961,0.064351276,0.21578932,-0.24521072,0.34094816,-0.19743335,-0.2203285,-0.19942644,0.24471243,-0.08470168,-0.24485235,0.05363156,0.075217776,-0.30963477,0.14879365,-0.19018152,0.572882,0.0356626,-0.26784787,0.061105657,-0.16583778,-0.3835524,-0.14846675,0.32054418,-0.13132833,-0.0070458734,0.00765412,0.41155794,0.15294379,-0.08345529,-0.09354609,0.11639168,0.058484457,0.1669477,-0.13594024,-0.1932282,-0.33790618,0.034697127,0.19832076,-0.1451117,-0.21535182,0.26210108,0.16024679,-0.091325045,0.38330284,0.17740072,-0.43466598,-0.4190845,-0.06270006,-0.13463657,-0.04596587,-0.16346478,-0.048789393,0.2229891,-0.0022730133,-0.15625158,-0.14646307,-0.31876996,0.09987067,0.41356462,-0.054451823,-0.080155835,0.102634445,0.32667896,-0.069010325,-0.0125568155,-0.01643353,-0.4402595,-0.007000823,0.44647837,0.20628713,-0.25477275,0.10381064,-0.20034516,-0.2715313,0.017529696,-0.16595359,-0.090562575,-0.13236955,-0.2899722,-0.2962935,-0.05297878,-0.12016259,0.0044467347,0.18217799,0.25897402,-0.082535885,0.2353872,-0.053893298,0.17638105,-0.08087572,0.02322274,0.58325976,0.3086841,0.111108735,-0.059935555,0.4656973,0.07162073,0.39493683,0.048250247,0.40159157,-0.010154544,-0.40452462,-0.088813104,0.18679121,-0.17101957,-0.08271696,0.08174622,0.3895042,-0.38239738,0.016114425,-0.066984445,-0.22766759,-0.27775508,0.16433218,0.2153537,-0.06721907,-0.07455869,-0.2053123,0.07495517,-0.035859816,0.070041515,-0.18422674,0.027618388,0.4016691,0.29464686,-0.018276403,0.14133778,0.12580325,-0.25035912,-0.27719936,-0.037193693,0.30364442,0.1492832,-0.009072317,-0.09546708,-0.43292683,-0.1211934,-0.24983162,-0.046604343,0.011889268,0.035853602,0.02534379,0.045224886,0.3293624,0.37958118,0.014020325,-0.08931874,0.21323955,-0.2509937,-0.21241929,-0.2869769,-0.19844821,-0.28218657,-0.36426133,-0.23115842,-0.27981207,-0.25894457,-0.24257912,-0.3584957,0.061855167,-0.17162898,-0.03660804,0.22263579,-0.10304394,-0.12084839,-0.20510334,-0.07136419,0.21947017,-0.0023746085,0.19930516,-0.21083651,-0.02594056,-0.16487943,0.2221247,0.5640889,-0.32517523
/kaggle/input/shl-intern-hiring-assessment/Dataset/audios/train/audio_1114.wav,1.5,0.15138748,0.092982605,0.063898005,0.008613103,0.0004359716,-0.15829569,0.174637,-0.18465035,-0.13080652,-0.15622452,-0.1580741,0.463108,0.114676714,0.14490145,0.24305457,-0.026300425,0.48239142,0.047714725,-0.040953178,-0.6162135,0.0013062124,-0.13669342,0.019683534,0.25633547,0.41231382,-0.00069349364,-0.05221463,0.010126424,-0.13071536,-0.12621944,-0.3344697,-0.0011314674,-0.20617846,0.045747496,-0.17297392,0.3749194,-0.24843428,0.1131013,0.20976716,-0.1794666,-0.17696735,-0.23363489,-0.15157455,-0.16341317,-0.37459537,-0.008996609,-0.17888328,0.23876229,0.12917791,-0.107961796,-0.08753478,0.06935373,0.1845835,-0.089352295,0.045616258,0.12416093,0.16004959,0.009008624,0.11353685,-0.21193975,-0.2527399,0.2505814,-0.04240046,0.04875114,-0.44411707,0.078993805,-0.21438222,-0.2184224,-0.32260168,0.21012715,0.051975716,0.15695204,0.0699458,0.117995046,0.08969905,0.42948592,0.5330184,0.055963844,-0.28906417,-0.015582213,0.49305797,0.12104444,-0.011579053,-0.15761192,-0.15396474,0.39443123,-0.13745275,-0.02513002,-0.20262383,-0.0659637,-0.6059762,-0.15562795,-0.00937004,-0.12193094,-0.286018,0.08678315,0.48617905,-0.098404124,0.05999188,0.06346241,-0.09920889,-0.24476072,-0.26471132,0.25745973,-0.0053511895,0.092736915,-0.057119206,-0.024358494,-0.07983729,0.12282475,-0.22732861,0.25409812,0.14296684,0.12765257,0.05023705,0.020754015,-0.0091389725,-0.21506846,0.1927691,-0.1779386,-0.15462656,-0.050277323,0.10649144,0.09942923,-0.2801189,0.10154502,0.26115856,-0.081316814,0.4263713,-0.20242432,0.4109525,0.11381768,-0.10830013,-0.13694927,-0.24972624,0.17027298,-0.1951755,-0.028356723,0.17012435,0.15726967,-0.06814243,-0.38126105,-0.008813789,-0.10044434,-0.020082435,0.0020393108,-0.745233,0.016264372,-0.120266035,0.18545848,0.27553272,0.21738556,-0.13088731,-0.50405437,0.18924299,0.04708323,-0.016709697,-0.14544007,-0.045829143,0.15075608,0.19570301,0.00045277644,0.15959764,-0.016776044,-0.14017625,-0.12272535,0.19432893,0.034098666,0.09995448,-0.2727423,-0.025284484,0.018097904,-0.04151368,-0.09484697,-0.15906663,0.5187146,0.11272175,0.0011774468,0.0689151,-0.081616215,-0.27088776,0.06119906,-0.11393732,-0.0034753084,-0.29879835,0.19945218,0.09329942,0.16523099,-0.08736845,0.060097758,0.15955348,-0.0049533625,-0.07118158,0.07191575,-0.073000014,0.20593826,0.41495028,0.18864225,-0.08146219,0.10250819,0.17308354,-0.09786409,-0.4114306,-0.108559355,0.00856477,-0.3267212,0.13599691,-0.029388396,-0.062618285,0.10971892,0.39014137,-0.047681484,-0.11951848,-0.07403416,-0.37346765,0.064513795,-0.2520736,-0.024138298,-0.10188633,0.14893696,-0.015846249,-0.28124514,-0.035401095,-0.10058354,0.09651213,0.36347094,0.084054485,0.12988807,0.08527291,0.22310092,0.03565039,0.2094057,-0.0903379,0.11201685,0.24003589,0.093154505,0.022635521,0.042551253,0.11417671,-0.1915425,-0.3383605,-0.0041155647,0.14672992,0.1442041,0.3061226,0.13457097,0.007511872,0.087285,0.35943016,-0.36576566,0.03794853,-0.07887546,0.29890162,0.07042436,0.13701436,-0.067284614,0.14670219,0.035983894,0.113443725,0.06963755,-0.2628027,-0.39629486,-0.24877651,-0.05697638,-0.7982543,0.26801202,0.01739127,0.13651304,0.09315072,-0.119907446,0.018101191,0.30742323,0.0074381856,0.028723788,-0.10440736,0.4652743,-0.0065201838,-0.26952723,0.20645659,0.13755755,0.062607355,0.010395621,-0.25117317,-0.061849546,0.21050937,-0.033698667,0.44829518,0.16632707,0.17328212,-0.44732642,-0.22170477,0.4828977,-0.2501465,0.1911978,-0.41229254,0.021358564,-0.054822672,-0.018573906,-0.104657285,-0.0712004,-0.18475862,-0.73810816,-0.261305,0.18255283,0.034671824,-0.049320765,0.37004808,0.13909292,0.032790843,-0.103616394,0.47959417,0.42732674,-0.19516385,0.17829664,0.045574527,-0.05075279,0.081908435,-0.089249484,-0.13801306,0.23303452,-0.19280459,-0.01852717,0.17113924,0.45395052,0.15761858,-0.26463717,0.5728607,-0.33808264,0.058913015,-0.01883215,0.20602442,0.31610402,-0.006807745,-0.024018493,-0.007298961,-0.34112784,-0.29968977,0.112846576,-0.02163886,-0.18670096,0.21555789,0.12987614,-0.29948494,-0.2869438,-0.03604366,0.39357248,0.11679466,-0.011636656,0.10740895,-0.11979949,-0.048739873,-0.017656572,0.562318,0.03378997,0.135524,0.31999007,-0.11389077,-0.035723485,0.105876684,-0.052275512,0.010539332,0.07995021,-0.048151482,-0.2715601,0.064803615,-0.60488355,0.023868952,-0.22323911,-0.18645567,-0.13686953,-0.15024926,-0.28612617,-0.030946856,-0.11002104,-0.11322149,0.5460017,-0.1620919,-0.3109779,0.107319124,-0.0712667,-0.15889397,-0.06521271,-0.10792931,0.30123124,-0.6020743,0.36780724,-0.39856297,-0.0024981543,0.025836902,0.03225264,0.11970229,-0.020955067,-0.22072092,-0.43336976,0.017520873,0.9137102,-0.19047692,0.04152304,0.41952074,-0.21745557,-0.05047566,-0.03984359,0.0818532,-0.2695946,-0.13068649,0.020349525,0.3099059,0.022422858,-0.0020649065,-0.35065272,-0.03499865,0.2642195,-0.09007932,0.014039218,-0.05766564,-0.19928853,0.11655178,-0.11492144,0.29275104,0.11952248,0.12078063,-0.2406609,-0.19435023,-0.21498442,-0.112720445,0.11354065,0.16192275,-0.014933638,-0.019070063,0.15804847,-0.06920008,0.33797157,0.47044873,0.12791336,-0.08813433,-0.08229958,0.020944113,0.13113485,0.11645662,-0.5434205,-0.040291257,0.13131018,0.26185393,-0.10030976,0.14068648,-0.106066175,0.16357023,0.033450685,-0.045061097,-0.040260293,-0.15039673,0.21217418,-0.36036277,-0.24973014,-0.05178515,0.04942625,0.09747557,0.04415365,0.2955469,-0.17605571,-0.42442453,0.042617008,-0.04891292,-0.06615542,0.11120001,0.48266235,0.18951784,0.04099365,-0.09939244,0.071523026,-0.010104861,-0.23792104,-0.0018654373,-0.063736886,0.012891988,0.048152216,0.06742582,0.08110343,-0.2875521,-0.12232091,-0.9444346,0.100840926,-0.35376537,0.05584765,-0.086079605,0.41679007,0.054684825,-0.15892495,-0.01283428,0.14574175,-0.19554655,-0.01596818,0.1025008,-0.0895309,-0.17101376,0.16317524,-0.058074355,-0.33051246,0.28927487,-0.00498611,-0.253773,0.22560963,0.11146422,-0.06257553,-0.26884356,0.03697581,0.024715507,0.31747356,0.11834993,-0.118462935,-0.0237129,0.1709471,0.194181,0.003277298,-0.10267647,0.11260456,0.4308226,0.20959932,0.062317908,0.068100676,-0.37199286,0.18274759,0.12799296,0.1054003,-0.23793226,-0.24444464,0.09644339,-0.09982457,-0.16598754,0.63134813,-0.08445085,0.006505855,-0.0035592096,0.08836925,0.15428153,0.06266053,0.12647977,-0.12921958,0.37761512,0.05156328,-0.31191817,-0.21127,-0.04548944,-0.20530258,0.92824036,-0.2346206,0.20624469,0.636293,0.065993816,-0.18083829,0.5435028,0.21735373,-0.099097505,-0.12680764,0.06770975,0.17822447,0.18481493,-0.09766904,0.22590035,0.09348409,0.025209332,0.07338877,-0.06026636,-0.1208532,0.15361182,0.19572245,-0.23125419,0.0011244585,0.18196021,0.20933904,0.32389098,-0.3819254,-0.012155896,-0.031280696,0.22221011,-0.05442655,0.41035366,-0.20941201,-0.0075450707,0.14741375,-0.21198143,-0.34709525,0.065776266,0.03776486,0.0802178,0.08530404,-0.15987296,-0.3261788,0.20932055,0.097542405,-0.028112603,0.1833574,-0.115348406,0.055419773,-0.39639705,0.22729582,-0.22717187,-0.18020934,-0.08724885,-0.039590072,0.03617267,-0.07572578,0.11345675,0.146054,-0.13351025,0.21787675,-0.124979846,0.49051347,0.017716154,-0.26061922,-0.038375743,-0.2741695,-0.24962069,0.089351095,0.22635362,-0.54739714,-0.15443319,-0.018833945,0.40648633,-0.22135644,0.053835988,-0.060488716,0.15139535,0.024826717,0.15809557,-0.10281834,-0.050338425,-0.28334296,0.072384186,0.10297266,-0.14537492,-0.18337981,0.053218387,0.1431027,-0.21401675,0.30282238,0.17510161,-0.21768059,-0.30917272,-0.14434852,-0.16701056,-0.28831768,0.24432708,-0.15046123,0.008015689,0.046497293,0.12053443,-0.2671496,-0.31690824,-0.15743479,0.28537086,0.066260315,-0.03738885,0.043546755,0.13728088,-0.17439875,-0.22881004,-0.19154486,-0.6354427,0.012442152,0.077902876,0.33720684,-0.23003292,-0.07815557,-0.12375681,-0.20097148,0.1534794,-0.08127727,-0.057745792,0.037849676,-0.27678025,-0.08818118,-0.06174985,-0.026305262,-0.055764776,0.07025614,0.23861815,0.13314445,0.17332898,-0.049100794,0.22667241,0.20602532,0.20512238,0.5280882,0.29657927,0.24085703,-0.1690522,0.26468912,-0.3947027,0.31964296,-0.04000053,0.31259075,0.04058875,-0.27216384,-0.08808776,0.1860995,-0.07358416,-0.16292533,0.23167168,0.16939735,-0.20257233,0.23212095,-0.0048675546,-0.17327875,0.010016224,0.11512589,0.042421773,0.077149905,-0.1981006,0.060488135,-0.009005098,-0.074847735,-0.21011156,-0.09382067,0.013905929,0.11408608,0.23800883,0.22287747,-0.043273445,0.033493105,-0.18209325,-0.12370755,0.00980099,0.17762499,0.16016786,-0.14167032,-0.2116201,-0.23529586,-0.3035743,-0.17557074,-0.052206546,-0.1398821,-0.01175308,0.035385218,0.030361395,0.46655667,0.39579293,-0.034259968,-0.058389105,0.2833219,-0.009018067,-0.20472093,-0.42038414,-0.076396346,0.24772134,-0.2115014,-0.23669957,-0.22846125,-0.16704151,-0.17129654,-0.4607349,-0.1275448,-0.31595114,0.022445016,0.057239816,0.035574332,-0.19969048,-0.26485574,0.29848552,0.13074178,-0.1612397,0.06185502,-0.21861549,-0.05924354,-0.136538,0.37161425,0.31738907,-0.23993942
/kaggle/input/shl-intern-hiring-assessment/Dataset/audios/train/audio_946.wav,1.5,-0.028788682,0.05483331,0.005389565,0.15823267,0.27607,-0.365775,0.14054096,-0.24205886,-0.17116974,-0.14787546,-0.39873546,0.60760146,0.2518815,0.19221032,0.07652831,-0.09515606,0.48708585,0.0014983591,-0.06450457,-0.55412513,-0.0011847855,-0.16265033,0.0593348,0.255162,0.36789814,-0.011086587,0.12950706,-0.16413459,-0.10887529,-0.12524027,-0.19342536,-0.059322786,-0.33530152,0.09304306,-0.19514081,0.16642436,-0.13786547,0.1438095,0.1937941,-0.16620092,-0.20920208,-0.17693472,-0.0985481,-0.2097625,-0.56712127,-0.089000925,-0.2309049,-0.097768806,0.056760337,-0.17864236,-0.062464938,0.30091462,0.36555573,-0.060119774,0.2523572,-0.0038726525,0.066162005,0.1493882,0.23159818,-0.24877885,-0.262489,0.001368645,-0.09037481,-0.0024354062,-0.2141901,0.16705401,-0.15066291,-0.36117905,-0.10795109,0.18909883,0.12252548,-0.029815765,0.14365606,0.10996793,0.160956,0.47262788,0.5022935,-0.12749185,-0.29110205,-0.08995256,0.4242629,0.05185846,-0.036398347,-0.055659365,-0.046300907,0.19184439,0.006153081,-0.007267082,-0.2614917,-0.05450747,-0.62826866,-0.082473785,0.012915403,-0.13072202,-0.3684603,0.14388484,0.43712893,-0.20224376,0.058934953,0.0039023885,-0.034006286,-0.113921985,-0.19213818,0.1198312,0.029214941,0.15798289,0.08058274,-0.078189395,-0.08637069,0.22135067,-0.09234672,0.21849422,0.0983985,0.07323915,-0.12804148,0.110572085,-0.053929344,-0.25445357,0.14327857,-0.32042933,-0.4393148,0.05601939,0.08210265,0.11174433,-0.12952651,0.21598779,0.36692733,-0.12511778,0.40017912,-0.19567946,0.37154797,0.18606551,-0.02473804,-0.11816684,-0.2061087,0.3175841,-0.15073887,0.04718231,0.14710067,0.15857665,-0.07298472,-0.33027875,0.039205104,-0.18119283,-0.06819151,-0.0622673,-0.5295036,0.14313972,0.028971454,0.3766898,0.107826985,0.28631756,-0.024812523,-0.40396398,0.15241629,-0.11274383,0.017917993,-0.050502323,-0.23657104,0.06723302,0.16661854,-0.012651785,-0.0038898753,-0.012911024,-0.20124409,-0.17131692,0.44034722,0.3289552,0.27015507,-0.30859828,-0.052021492,0.08005058,-0.15098679,0.14257522,-0.13812692,0.4997754,-0.22524525,-0.047553897,-0.0032877442,-0.22342448,-0.36462438,0.06777915,-0.09926997,-0.052593086,-0.45063648,0.20064582,-0.043191254,0.31990194,-0.054410372,-0.030235766,0.32545087,-0.03069835,-0.11838753,0.037444852,-0.16150023,0.26103058,0.23892857,0.02667377,-0.03527213,0.110735714,0.1383268,-0.0736965,-0.37042055,0.07252723,0.1296614,-0.25746778,0.057729628,-0.009277814,0.04353839,0.16838436,0.3814808,-0.09557551,-0.17786457,-0.19748347,-0.25726405,0.08612508,-0.40535095,-0.14704172,-0.106284946,-0.14382157,0.05387209,-0.34172428,-0.03656993,-0.08049494,0.073536575,0.28200486,0.07381312,0.1724271,0.16128872,0.27268353,0.057013225,0.30227426,-0.022803297,0.12798566,0.30233863,0.06455082,0.014460905,0.00060961297,0.024477163,-0.20936538,-0.5094339,0.19557296,0.11834111,0.24981345,0.3338376,0.14638884,-0.12005741,0.1270755,0.3410342,0.045564733,0.08796152,-0.09704875,0.4305339,0.070837885,0.14601047,-0.15581445,0.2181886,0.321927,0.21430278,-0.0058028586,-0.2975586,-0.34218165,-0.34403998,0.23711702,-0.5635224,0.385311,-0.049304254,0.19371542,0.011019032,0.0040884553,0.08615035,0.4088936,0.03606302,0.06564446,-0.015904473,0.506712,0.028194476,-0.17145929,0.29710418,0.030962227,-0.14553747,0.037753038,0.07642784,0.1580553,0.30443028,-0.08038512,0.060937308,0.046884943,0.131533,-0.20555738,-0.2370723,0.39989477,-0.2805397,0.12150219,-0.20113689,-0.18400156,0.030522835,-0.06726139,-0.15900876,-0.083824806,-0.0986622,-0.78582394,-0.26523292,0.07268614,-0.033028036,-0.26101503,0.5293581,0.22263125,0.043864526,0.079192735,0.43376312,0.6510759,-0.24107203,0.057866145,-0.16439252,-0.04506691,0.106327,-0.21163017,-0.2602924,0.13425729,-0.15817538,0.024424152,0.35086685,0.33623788,-0.027626924,-0.26210943,0.42666772,-0.30766213,0.1136515,0.0340694,0.20612897,-0.11973384,-0.07218477,0.016921474,-0.19831674,-0.012023161,-0.38898763,0.034829132,-0.22162698,-0.21252376,0.43101844,0.16064024,0.100716315,-0.18602015,-0.20518808,0.17349917,-0.11528841,-0.27045283,0.09223778,-0.10339817,0.07088613,-0.11763039,-0.07645666,-0.0123727545,0.13674372,0.4190375,-0.08468902,-0.014481186,0.09960233,0.063555785,0.1023336,0.062394284,0.01649466,-0.23589347,-0.016069723,-0.046959367,0.07596885,-0.15933862,-0.021655777,-0.18185888,-0.16873519,-0.3849665,-0.122312866,-0.0012334154,-0.161155,-0.038094565,-0.100402646,-0.38999745,0.17571934,-0.051901318,-0.09018077,-0.009166772,-0.1138643,0.44143048,-0.691717,0.11451963,-0.46646187,0.116361946,-0.05561703,0.18042675,0.0135342665,-0.124983266,-0.30379325,-0.5603946,0.3353161,0.3416592,-0.00406662,0.008309056,0.36486173,-0.15915495,-0.08984072,0.37803724,-0.12639287,-0.2982524,-0.10324729,-0.078614034,0.51444715,0.053605594,-0.12970774,-0.16805713,-0.027108831,0.35487616,-0.26637968,0.0016209986,0.08386118,-0.21304578,0.1003796,-0.14016175,0.3105191,0.10332401,0.10515132,-0.30906177,-0.22481513,-0.295075,-0.21879235,0.18250626,-0.008394284,0.20612238,0.08190199,0.28500324,-0.024596857,0.20498131,0.09521855,0.12887734,-0.0753147,-0.044655107,-0.027082222,0.19961749,0.054557994,-0.5856423,-0.23349357,0.13064381,0.31302458,-0.10012259,0.08486349,-0.14384654,-0.10678754,0.034828924,-0.1925079,0.032061834,-0.24006742,0.02930321,-0.19193189,-0.19109093,-0.04847363,0.031182826,0.07913663,0.03822566,0.22222203,-0.14654133,-0.31391403,-0.041906487,-0.086590126,-0.0018300299,0.08348228,0.18445897,0.10917984,0.22999807,-0.10086163,-0.13286038,-0.08634527,-0.18471006,0.037152726,-0.00026499442,0.068753295,0.113517806,0.06621371,0.25302514,-0.3923083,-0.30308586,-0.73007494,0.058516897,-0.23007278,-0.022390695,-0.0764156,0.10139119,-0.032105755,-0.09698337,0.024656018,0.34364417,-0.17841952,-0.04290282,0.16915846,-0.13725397,-0.14243722,0.15415277,0.014093772,-0.30461323,0.06439394,0.07260447,-0.050431073,0.22753105,0.10134375,-0.08739781,-0.20784241,-0.2009001,-0.057665102,0.24667434,0.12047935,-0.10914167,0.030854154,0.20989281,0.2704178,0.0104101235,-0.054495487,0.09112624,0.33805406,0.22051625,0.17739402,0.15568507,-0.33162317,0.13766313,0.1890063,0.06995607,-0.17017356,-0.3337488,0.11090364,-0.25765747,-0.2340486,0.48553944,-0.14858198,0.15085757,-0.016466925,-0.024768254,0.35373077,0.16830792,0.2726097,-0.11900906,0.4026031,0.16069789,-0.13288504,-0.24299404,-0.14659987,-0.3198465,0.36506647,-0.24196762,0.16461241,0.25635123,0.054794975,-0.12383739,0.6899588,0.26381472,-0.04084558,-0.18613479,-0.045262445,0.20687227,0.19181755,-0.030924646,0.3273276,0.07011463,0.0009497569,0.18692628,0.029937755,-0.08721572,-0.023979077,0.0061585326,-0.10374789,0.0031828932,0.1616779,0.21964891,0.2854868,-0.4802239,0.11476669,-0.0871916,0.46354088,-0.12387966,0.51844275,-0.17238502,-0.0027219064,0.26497087,-0.17694077,-0.04765672,-0.050876327,0.05748793,0.21833764,0.1358321,0.00068901136,-0.20901476,0.14013451,0.07819399,0.04249674,0.27501047,0.073657535,0.21736847,-0.34958854,0.17086501,-0.1410244,-0.2657617,-0.14150807,0.21293062,-0.012375518,-0.09422002,0.05997714,0.123517044,-0.4188201,0.20177905,-0.17298374,0.5173631,-0.0036214462,-0.3226921,-0.023055958,-0.45556363,-0.26330537,-0.2693929,0.3592277,-0.16127157,-0.036421295,0.024940569,0.42484266,0.12752959,-0.15870151,-0.056732517,0.20512612,0.032575462,0.26254654,-0.09993093,-0.15167765,-0.2928838,-0.026783874,0.117263734,-0.1738005,-0.29079568,0.34402916,0.1656386,-0.14061391,0.4575257,0.26884148,-0.34273905,-0.45566046,-0.094001696,-0.13914354,-0.04970891,-0.019993192,-0.061380725,0.18118843,0.029706769,-0.08408906,-0.1642906,-0.4337802,-0.009871045,0.44683555,-0.04448311,-0.014922619,-0.01950811,0.20368221,-0.22434492,-0.023142776,-0.21711384,-0.47426215,0.032084808,0.22444506,0.28324446,-0.24936372,0.09851619,-0.2226158,-0.21089473,0.007906964,-0.22360146,-0.03583307,-0.01678111,-0.31692776,-0.1851583,-0.0827534,0.012239406,-0.0032911056,0.17865556,0.13391055,0.039087594,0.1574916,-0.056439165,0.12852712,0.08716566,0.20426078,0.49293414,0.288676,0.31143242,-0.1066686,0.3560904,-0.0414891,0.4939852,-0.00581521,0.48295867,-0.04646239,-0.3139368,-0.12611267,0.17334506,-0.01283569,-0.10553893,0.1858711,0.29768842,-0.26771286,0.057059526,-0.0023940075,-0.16511768,-0.12653711,0.115117475,0.12699004,0.043235958,-0.18225877,0.0672891,0.040726893,-0.119800545,-0.011678682,-0.15078814,0.034799766,0.22903052,0.29719633,0.020268619,0.072293,0.063224755,-0.12175676,-0.250879,-0.025082303,0.33921355,0.2476433,-0.03138177,-0.042154845,-0.41051772,-0.1452477,-0.23331018,-0.06827935,0.010632462,0.21476716,0.017991072,-0.04052189,0.1794049,0.24876143,-0.030119289,-0.03365098,0.2604929,-0.059939343,-0.19848597,-0.37876466,-0.24023056,0.04407863,-0.28611103,-0.28349787,-0.30130994,-0.07782912,-0.11043619,-0.453858,0.04090411,-0.19588648,0.078616604,0.13401268,-0.06735289,-0.123862736,-0.15835111,0.09342241,0.25603327,-0.08102302,0.109881975,-0.28410703,-0.070773706,-0.16466592,0.29469547,0.40414345,-0.19039936
/kaggle/input/shl-intern-hiring-assessment/Dataset/audios/train/audio_1127.wav,2.0,-0.1187089,-0.079719715,-0.012455437,0.18321216,0.32257435,-0.15782578,0.18834648,-0.18124232,-0.06290841,-0.07899826,-0.2283955,0.56127465,0.20163918,0.16924568,0.0401551,0.08815767,0.26315096,0.050675504,-0.0641532,-0.53909355,-0.17862752,-0.15236656,0.12085197,0.17039606,0.22690298,-0.0548269,0.08723812,-0.058999907,-0.098574094,-0.07840366,-0.19894664,-0.09326517,-0.20656453,0.026120726,0.17041518,0.22287706,-0.25807607,0.11996921,0.05671254,-0.20130742,-0.10724906,0.10011309,0.029315857,-0.14654705,-0.5052202,-0.29353783,-0.24586754,0.04925136,0.064024925,-0.15090086,-0.04044899,0.27624857,0.2594743,-0.01690157,0.08158332,0.07821858,0.07367888,-0.014814714,-0.06314493,-0.18965344,-0.1624977,0.040205404,0.002037772,0.061878864,-0.24989831,0.15505461,-0.18822439,-0.29329133,-0.037765656,0.10985111,0.14953788,-0.007974401,-0.089031376,0.1250385,0.13951103,0.35473007,0.32401645,0.18888886,-0.20383795,-0.012012276,0.21627623,0.16619886,0.07284551,-0.07280246,-0.052213266,0.29222214,-0.07175389,-0.102731,-0.15775605,0.015853621,-0.46637103,-0.23144381,-0.07878321,-0.071338035,-0.26396683,0.110299796,-0.15735091,-0.07687594,0.03475259,-0.1060322,-0.10549692,-0.12698652,-0.00875374,0.10061689,0.018130068,-0.036326364,0.19749852,0.0019055792,-0.08014063,0.12909655,-0.15054348,0.24509934,0.2407589,0.013698723,-0.071972884,0.08191535,-0.037661403,-0.32454377,-0.0005456945,-0.20229413,-0.2827748,-0.09964291,0.10765711,-0.043167017,-0.3010026,0.10777942,0.26069683,-0.15828134,0.48920658,-0.33431584,0.3542079,0.17973274,-0.2146757,-0.12169599,-0.16178733,0.21208452,-0.43445066,0.06368844,0.09542968,0.017841643,-0.006246819,-0.055729873,0.027075874,-0.082493745,0.052973956,-0.07916106,-0.7118728,-0.033626996,-0.094676144,0.32294014,0.18796201,0.19148389,-0.050425984,0.0518862,0.082945384,-0.121934325,-0.0636436,-0.1420161,-0.10316966,0.012605167,0.12703323,-0.0004112005,-0.06338199,0.024358392,-0.07904104,-0.13406835,0.21941352,0.24642618,0.10090812,-0.3430492,-0.08451147,-0.04177128,-0.062158056,0.12211976,-0.17669635,0.43032983,-0.19387591,-0.12322352,0.1603522,-0.17051336,-0.25957218,0.019028326,-0.052640803,0.0370763,-0.5107699,0.04419241,0.2298357,0.05088893,-0.117688105,-0.21276367,0.24148196,0.0045880014,-0.126777,0.08237691,-0.072204985,0.21640606,0.24209985,0.039643046,-0.24168925,0.100136556,0.139245,-0.059288453,-0.6469614,0.27397737,0.14245987,-0.30697682,0.029173523,-0.0021016756,0.050475474,0.20145981,0.24005173,-0.1573516,-0.10911775,-0.13087322,-0.22288059,-0.014334331,-0.3320332,-0.2141515,-0.065233536,-0.11880349,0.007756401,-0.20943737,0.019268025,-0.12315076,0.12912872,0.095487006,0.058732845,0.09497046,0.14678201,0.1525118,0.00422835,0.12291139,-0.09789372,0.19121158,0.3192424,0.16173688,0.0056786416,0.02639615,0.0921067,-0.12187097,-0.30859217,0.12592524,0.15160666,0.13570032,0.27938095,0.08295726,0.030602243,0.036076754,0.22332403,0.10306536,0.028477749,-0.057758488,0.18571241,0.08558781,0.19934756,-0.32042295,0.19365664,0.12143152,0.08377441,-0.15134041,-0.14639102,-0.3546291,-0.3149644,0.12526616,-0.7772665,0.2514738,0.008429664,0.02877578,0.006436686,0.042159595,0.023660993,0.29751858,0.035870012,0.050823495,0.19280146,0.47091645,0.07461511,-0.025383696,0.14785431,0.1788193,-0.06953274,0.2676067,0.009388693,0.067231104,0.2787489,-0.15024318,0.23499767,0.04620716,0.09782175,-0.27470863,-0.30371836,0.33268073,-0.26203805,0.12659803,-0.37337837,-0.08630706,-0.0009238598,-0.07733969,0.036135193,-0.01599705,-0.07591246,-0.25460762,-0.2583339,0.06378569,-0.026722653,-0.16981018,0.34961757,0.22966677,-0.027494853,0.18154268,0.5471514,0.5526981,-0.082554154,0.09573179,-0.0056342855,-0.013861491,0.08144916,-0.11933352,-0.1463927,0.21959586,-0.090515584,0.06448465,0.1902028,0.29133573,-0.09166277,-0.20032322,0.6382415,-0.1607196,0.015493311,0.1999782,0.14572175,0.08479683,-0.021912465,0.08451876,-0.2335329,0.09405118,-0.3272577,0.039625067,-0.27398345,-0.0893964,0.07452833,0.068850264,0.06438492,-0.25179037,-0.3995842,0.07232867,-0.0638064,-0.18408763,0.17848204,-0.120878145,0.01608131,-0.094480485,0.13768062,0.02189489,0.17976335,0.3619224,-0.05581047,0.057145707,0.15006575,-0.06198063,0.07338345,0.08750267,0.18160912,-0.18416451,0.011574445,-0.5020331,-0.04649515,-0.15338872,-0.0499076,-0.20580275,-0.08650589,-0.33390737,-0.12897512,0.09420363,-0.25680098,-0.21332219,0.13444333,-0.27097526,-0.036652274,-0.039102126,-0.077292286,0.061231036,0.09082657,0.39538407,-0.7049703,0.105497934,-0.47896007,0.10416549,-0.0047456464,0.17342497,0.19579215,-0.035586163,-0.23095916,-0.3854083,0.13184974,0.6301414,-0.09012613,-0.12681028,0.53949875,-0.052256145,-0.1322961,0.084011056,-0.0103307655,-0.33886132,-0.10660942,-0.035084352,0.32870412,-0.058977038,0.026258998,-0.20161638,0.13243274,0.29539943,-0.16234423,0.055606093,0.06349739,-0.24432737,0.122560315,-0.24421261,0.19435376,0.071455926,0.14101253,-0.15597498,-0.1895828,-0.19234124,0.004690328,0.03078267,0.0816373,0.19245124,0.22957088,0.088710025,0.024620337,0.2140811,0.2935761,0.14150986,-0.0047558323,-0.15056482,0.05180729,0.19423604,0.1622666,-0.6153545,-0.30555308,0.3156784,0.3889173,-0.07838991,0.02485908,-0.19415984,0.05175983,0.08202861,-0.13767873,0.008450074,-0.19370794,-0.036397118,-0.21702228,-0.3232082,-0.048892308,0.07602776,0.037355594,0.072921455,0.1725673,-0.029737558,-0.2607248,0.023504514,0.026192246,0.038661517,0.12591235,0.2861789,0.14373887,0.2944774,-0.09404965,-0.16328296,-0.11406069,0.047615074,0.07582011,0.084529795,0.040786833,0.08538875,0.065922126,0.064209074,-0.36910897,-0.2793293,-0.95523214,0.044761322,-0.22887863,-0.06371101,-0.028102065,0.33666494,0.048867457,-0.011435532,0.101183,0.30660215,-0.15651372,-0.0676539,0.037210617,-0.09099299,-0.20956859,0.26965588,-0.09345154,-0.27083352,0.13063222,-0.010740884,-0.108394444,0.26932725,0.03407707,-0.057490584,-0.19745566,-0.037363674,-0.023403704,0.24045017,0.06891868,-0.06125704,0.013382385,0.13951285,0.16733837,0.18322329,-0.07698159,0.19699822,0.2927728,0.11303547,0.06862136,0.0982006,-0.123429455,-0.018225571,0.1823361,0.103348464,-0.25870785,-0.11769671,0.010141069,-0.19829921,-0.21895933,0.16908333,-0.12982915,0.1682354,0.007919679,-0.032069914,0.3635595,0.044705305,0.1931175,-0.15986106,0.3492949,0.12467116,-0.13227527,-0.2209656,-0.05890662,-0.096424796,0.62701344,-0.22438727,-0.05350424,0.50403774,0.018361447,-0.07149169,0.36838624,0.23374094,-0.09234885,-0.1155559,-0.019363813,0.3224226,0.20149353,-0.021708451,0.20589164,0.14761545,0.07552919,-0.040086795,-0.05198929,-0.10682471,0.007588111,0.1516354,0.0052471356,0.22677688,0.18244882,0.14911169,0.20584305,-0.35114738,0.033126548,0.03586116,0.45564175,-0.19620252,0.33816355,-0.060977306,-0.048051745,0.27519974,-0.058089938,-0.79723805,-0.06754496,-0.073632546,0.13742907,0.0968126,-0.121328026,-0.07364322,0.1121635,0.030597651,0.06996417,0.17738687,0.13819934,0.12533444,-0.36860043,0.16672868,-0.24741606,-0.18936542,-0.10479639,0.12643479,-0.1770932,-0.29182148,0.15141067,0.06899477,-0.1174867,0.0828114,-0.11207804,0.45906216,-0.0028724177,-0.2099283,0.025947582,-0.17214523,-0.14666472,-0.23385115,0.27583525,-0.2040398,-0.09446154,0.010794084,0.2629566,-0.3407361,-0.108723804,0.0011747646,0.1238961,0.087785795,0.12177257,-0.008185786,-0.16040874,-0.20807552,0.2210352,0.09243199,-0.065589435,-0.17115042,0.060422324,0.17619953,-0.10119424,0.051578276,0.051180553,-0.30338973,-0.5111314,-0.06626092,-0.21534893,-0.3041812,0.11009165,-0.033608012,0.1497428,0.025594143,-0.34785083,-0.23226061,-0.21059035,0.07412101,0.44277036,-0.1740515,0.086246945,0.087137975,0.2558271,0.03105156,0.046752024,-0.25052702,-0.5387766,0.010119965,0.3343584,-0.0055716466,-0.22458972,0.05973815,-0.08122792,-0.28612855,0.05038104,-0.07022907,-0.17488696,-0.0855926,-0.09454045,-0.28916466,-0.20184985,-0.102024235,0.011619943,0.21719292,0.030494757,0.03235795,0.3624879,-0.103403755,0.15779111,0.17959923,0.07671402,0.29360068,0.2618226,0.00092264224,-0.1433994,0.4215718,-0.03646397,0.19728678,0.083478935,0.3579909,-0.06745134,-0.28919908,-0.03465735,0.043926984,-0.19243683,-0.02196728,0.070019305,0.15667202,-0.3458861,-0.017125802,-0.060639422,-0.19983274,-0.13006285,0.17156264,0.085086495,-0.12886076,-0.087176494,0.017139293,0.049504653,0.019236526,0.06986539,-0.09912766,-0.057583045,0.30035996,0.24500234,0.08347764,0.20225571,0.1030913,-0.13524732,-0.10477643,0.079093,0.33097684,0.12382691,-0.011030644,-0.08473503,-0.12508625,-0.02750594,-0.21362808,-0.017344248,-0.0750092,-0.1405337,0.070784345,-0.035818644,0.29663527,0.23982055,-0.0054502483,-0.020068232,0.18044965,-0.33041298,-0.11344258,-0.2743304,-0.116241105,0.022617681,-0.35577136,-0.09378189,-0.27623126,-0.1841901,-0.114299595,-0.20787455,-0.106602356,-0.05953004,0.06106674,0.29344898,-0.09660559,0.015382121,-0.14857206,-0.0690254,0.16526155,-0.11248537,0.083607696,-0.40845957,-0.05183239,-0.20043339,0.20777482,0.37034538,-0.3362968
/kaggle/input/shl-intern-hiring-assessment/Dataset/audios/train/audio_669.wav,2.0,-0.17792916,-0.023168303,0.1678868,0.1648428,0.19542684,-0.23286957,0.19586277,-0.126115,-0.116177745,-0.057607513,-0.24886593,0.4512756,0.17363821,0.119537316,0.05808988,0.022843502,0.2412796,0.004543573,-0.06452302,-0.5571168,-0.24382396,-0.13810615,0.06652959,0.17859875,0.23135385,-0.10898693,0.14689934,-0.08843973,-0.19382232,-0.08082566,-0.05056087,-0.037459064,-0.18590264,0.08254575,-0.09974946,0.13300338,-0.43830115,0.20943536,0.17119035,-0.24264358,-0.17656915,0.032711808,-0.021228272,-0.2354377,-0.47687137,-0.3041857,-0.16364029,-0.09655587,0.113391146,-0.20742802,-0.021632211,0.18192196,0.199077,-0.04041832,0.22970071,0.11138026,0.11189138,0.17519158,0.11205869,-0.15702559,-0.1431787,-0.090945326,-0.010428663,0.2345245,-0.29987252,0.1743922,-0.1452724,-0.3801901,-0.09555773,0.11732999,0.04552244,0.015135575,-0.025193898,0.12738223,0.14285281,0.43970066,0.33898947,-0.05577844,-0.17540345,-0.055406198,0.25009796,0.14718877,0.056211356,-0.057427507,-0.1051347,0.14663427,-0.076390445,-0.009682269,-0.19623739,-0.02881578,-0.5142968,-0.21438093,-0.03642702,-0.13687326,-0.34440637,0.10408749,-0.09391259,-0.08009439,0.04468716,-0.05620173,-0.12959269,-0.14842418,0.016043687,0.11400734,-0.02660049,-0.12135425,0.2790091,-0.0032716827,-0.035695646,0.027117185,-0.030532852,0.12050694,0.14060025,0.02851012,-0.0146860825,-0.11490054,-0.061272923,-0.20772487,0.031769976,-0.18308236,-0.37531832,-0.015577658,0.1266249,-0.07215328,-0.15532205,0.23338978,0.21733622,-0.100710504,0.31307808,-0.3157074,0.4042386,0.23589756,-0.22067046,-0.104895234,-0.07743654,0.39336887,-0.3981484,0.02393341,0.24280411,0.17288044,0.0035315847,-0.10763268,0.0037237676,-0.078940935,-0.0282826,-0.11852029,-0.6663431,0.051784024,-0.124039695,0.2704753,0.11741308,0.26870134,0.034543768,0.10627257,0.10595223,-0.20409687,-0.048638437,-0.20604108,-0.12985857,0.10760518,0.17229429,0.008220442,-0.09497996,-0.09225584,-0.03531609,-0.10300272,0.14320529,0.30620918,0.26097676,-0.22094394,-0.07701673,-0.011969054,0.032824013,0.08451936,-0.090348005,0.5424158,-0.2110966,-0.1101543,0.15410446,-0.1157705,-0.17293936,0.06502854,-0.07109169,0.051356234,-0.5296422,0.06614141,0.19442658,0.1564837,-0.06483004,-0.17621578,0.123728916,-0.004777481,-0.11310251,0.09403056,-0.034976404,0.2754702,0.263312,-0.0024680302,-0.24248645,0.09931583,0.11395965,-0.10184381,-0.5054875,0.23964812,0.109069444,-0.23056729,0.036824267,-0.00024915225,0.026019359,0.22545265,0.1461312,-0.23244776,-0.12668195,-0.090739116,-0.15555422,-0.021014426,-0.22717582,-0.14832526,-0.0038541707,0.009810728,0.09431451,-0.1969164,-0.029595,-0.18264127,0.09014486,0.19244938,0.084172875,0.07859235,0.14007051,0.26481387,0.1446374,0.15234394,-0.05892175,0.15652658,0.2700079,0.0924236,0.024507092,0.010689621,0.09145779,-0.13652642,-0.40746215,0.3347057,0.035245493,0.15089463,0.27905235,0.11116957,-0.05062495,0.017131547,0.19665669,-0.040304836,0.03593664,-0.062337097,0.20919883,0.20605871,0.18603621,-0.24874616,0.13314623,0.12892029,0.05515888,-0.20162998,-0.12882672,-0.3005877,-0.34508178,0.21698658,-0.7087253,0.28606758,-0.08862763,0.07750596,0.07639688,0.102601536,0.02582971,0.33550513,0.027631832,0.06360316,0.04011726,0.4067495,0.024360593,0.043556023,0.18485245,0.08255969,-0.16042873,0.21530676,0.071429625,0.14276028,0.17872813,-0.11818644,0.2431005,0.057900257,0.15916313,-0.29978806,-0.2894586,0.22452256,-0.29711094,0.18464907,-0.28978086,-0.05079234,0.014737242,-0.10211345,0.09658565,0.0042432887,-0.08804255,-0.44884744,-0.25743783,-0.12634423,0.033095554,-0.23113501,0.32315278,0.26377565,-0.06765976,0.1800034,0.53726435,0.4726286,-0.24013047,0.06402888,-0.18639925,-0.031891476,0.09648568,-0.19331428,-0.23563452,0.32814232,-0.07791333,0.06315493,0.26614648,0.26292014,-0.007988091,-0.25649288,0.51386017,-0.19138774,0.102779746,0.06349088,0.18352593,0.004783652,0.07973423,0.039832316,-0.23165433,-0.11332599,-0.32297596,0.09496316,-0.10751606,-0.1446586,0.16129534,0.26980594,-0.017319134,-0.091052584,-0.20421752,0.03682379,-0.1301939,-0.27739394,0.100307286,-0.06572362,0.099974535,-0.12503995,-0.015472328,-0.060224034,0.17604198,0.37212554,-0.07007039,0.011559883,0.08026054,0.011337163,0.08355292,0.05440292,0.2776069,-0.1707456,0.004379015,-0.56079316,-0.049848486,-0.1408754,0.04934174,-0.14645779,-0.12664533,-0.22631797,-0.0849854,0.02920841,-0.24418242,-0.28293192,-0.002438019,-0.24925427,0.08283704,-0.055209447,0.023109384,-0.101848245,0.068216376,0.35838398,-0.6973679,-0.016698273,-0.54088616,0.115198515,-0.13025787,0.2552569,0.16497354,0.072830044,-0.16986682,-0.4132228,0.25993285,0.6952702,-0.13506907,-0.03189534,0.3150052,-0.06260485,-0.106216595,0.1955183,0.003584657,-0.42353323,-0.05322421,-0.0777033,0.32229328,0.0026334717,-0.14249389,-0.29810002,0.07774269,0.2974196,-0.07591386,0.044749692,0.07989384,-0.17788811,0.0755414,-0.22985311,0.21785274,1.3703034e-05,0.132062,-0.16364737,-0.23210086,-0.2823388,-0.1208693,-0.00821124,0.033328928,0.1326988,0.1283953,0.1687646,0.058731962,0.120126195,0.3504561,0.20251666,-0.043539822,-0.18681203,0.088672675,0.17828426,0.29867098,-0.6628513,-0.10938595,0.3200835,0.3520421,0.00020887388,-0.04624628,-0.14407946,-0.018318752,0.19485569,-0.19430245,0.0075545283,-0.055979185,-0.08752246,-0.19808567,-0.20671475,0.013527437,0.0021933622,0.099918656,0.12105121,0.26935697,-0.102713205,-0.34358063,0.033022,-0.001361073,0.1564161,0.15839563,0.3199568,0.06634108,0.20267482,-0.15651481,-0.2922762,-0.14838019,-0.12301622,0.084318295,0.11083644,-0.049831107,0.051829457,0.049432896,0.14367096,-0.4544505,-0.3483937,-0.8876514,0.012286838,-0.2746807,-0.100978404,-0.053994253,0.20013168,0.019342788,-0.09117443,0.13704205,0.3739357,-0.22113314,-0.08401919,0.029259954,-0.06988557,-0.16404422,0.31852674,-0.036612313,-0.220666,0.13318273,-0.0051671956,-0.11880717,0.19364835,0.072428234,0.010215787,-0.12387153,-0.09310271,-0.011658731,0.20371519,0.03687103,-0.027565993,-0.0063665276,0.07557544,0.1846173,0.14972806,0.045478404,0.19183107,0.37891346,0.016336415,0.12341145,0.052055452,-0.13357273,0.023869548,0.17865007,0.07615839,-0.089250304,-0.22553548,0.095216185,-0.11553517,-0.37901816,0.35505968,-0.08536174,0.06945201,-0.1648982,0.015194753,0.31873646,0.034871608,0.34646797,-0.19592683,0.37428367,0.09632929,-0.115244776,-0.18929629,-0.11904089,-0.2018042,0.3812065,-0.18878555,-0.0061817877,0.39666915,0.07756614,-0.02483582,0.53738254,0.30562547,-0.046679985,-0.05022995,-0.010294624,0.20849913,0.19237004,-0.061177284,0.16714469,0.058590557,-0.0070842616,0.058297936,-0.037872005,-0.11276991,-0.10568045,0.026912631,0.054604217,0.11733307,0.17366928,0.14533867,0.22101417,-0.3659485,-0.036721475,-0.0044831033,0.594616,-0.12798153,0.42773136,-0.09284772,0.041227702,0.29253006,-0.0057595214,-1.1758583,-0.13951612,0.0058394047,0.18824108,0.09175173,0.06622436,-0.083995946,0.07706053,0.012085974,0.09183171,0.17868902,0.12349862,0.092199996,-0.32026765,0.07340677,-0.12663558,-0.10395505,-0.20179982,0.05610935,-0.095035784,-0.2241143,0.18314701,0.12647863,-0.24905242,0.106552824,-0.13487795,0.5069964,0.023349179,-0.27244666,-0.04634858,-0.22692676,-0.043639846,-0.2666119,0.33960772,-0.018787801,-0.04305429,-0.03996731,0.13146488,-0.47694346,-0.07762709,-0.09770355,0.06677623,0.12404793,0.15964247,-0.12179042,-0.17063075,-0.16461815,0.19971722,0.09492372,-0.0671319,-0.23176834,-0.020031525,0.13606009,-0.1309424,0.15733154,0.09857232,-0.20967515,-0.4188591,0.010562498,-0.22607169,-0.26892522,0.26661837,-0.0013587185,0.1721932,0.036229968,-0.17460988,-0.18373984,-0.25435,-0.011734233,0.28114358,-0.19901627,-0.040786713,0.048946727,0.29284072,-0.050912715,0.17120361,-0.17793603,-0.50657356,0.04866893,0.25942641,0.15778162,-0.2136556,0.01677388,0.14040051,-0.2556558,0.05375349,-0.08146492,-0.124249645,-0.029485168,-0.07595898,-0.21716177,-0.24048075,-0.074754134,0.001674923,0.14223571,-0.009516572,0.016857233,0.23171896,-0.11194886,0.01926191,0.119750366,-0.06844924,0.266712,0.25079075,0.03450536,-0.06297422,0.4202764,0.16495334,0.2507888,0.06034205,0.30415168,0.029708724,-0.17898877,-0.11479625,0.07997102,-0.2614653,0.030920414,0.052537106,0.09264897,-0.4558799,0.091646835,-0.078172386,-0.10997561,-0.07817891,0.20668843,0.08543001,-0.023133717,-0.12656073,0.053805534,-0.00037004246,-0.007702392,0.19635655,-0.12745945,-0.045020875,0.3433301,0.20693295,0.025774436,0.15998337,-0.023513712,-0.2648438,-0.10924255,0.0472312,0.31541875,0.13256846,-0.0018457475,0.021278566,-0.18053417,-0.009331379,-0.20469488,-0.011990642,-0.14504866,0.11351769,0.07622473,-0.16654217,0.25578287,0.20120342,0.009929677,0.010706003,0.19018371,-0.18614693,0.039423253,-0.32342407,-0.1298819,-0.06268789,-0.31603116,-0.16081934,-0.30119216,-0.20791146,-0.04634864,-0.27534103,-0.07524037,-0.11594249,0.064993165,0.1906485,-0.018760674,0.06435461,-0.09635719,-0.096973315,0.1911369,-0.16447718,0.027737536,-0.36772382,0.00822997,-0.117667645,0.2521858,0.29497612,-0.36373407
/kaggle/input/shl-intern-hiring-assessment/Dataset/audios/train/audio_1029.wav,2.0,-0.20222066,-0.016158244,0.16970932,0.13072088,0.17730986,-0.26449654,0.25250292,-0.1456831,-0.123426735,-0.1167984,-0.2590143,0.54526174,0.09517479,0.1839747,0.081863955,-0.039973665,0.37457955,0.09743008,-0.11593691,-0.3820232,-0.16027518,-0.115614794,0.091705814,0.2421455,0.23740453,-0.057907272,0.0060632722,-0.061438728,-0.19230685,0.04632166,-0.1561418,-0.110134095,-0.29873034,0.048772804,0.04694959,0.1135505,-0.37904742,0.11548294,0.19846107,-0.118226424,-0.20597522,0.054969303,-0.07702041,-0.02569349,-0.520996,-0.25262344,-0.176452,-0.057973877,0.12742479,-0.18060587,-0.01130925,0.34787825,0.26361734,-0.039847612,0.13473946,0.16616906,0.15167125,0.023025783,-0.031034812,-0.08507471,-0.22655724,-0.123277135,-0.05792547,0.19045734,-0.25560763,0.22445774,-0.12324115,-0.31059343,-0.10256212,0.1076135,0.08257731,0.014978818,-0.0023953966,0.097010195,0.13158102,0.3178941,0.3226847,-0.017839538,-0.16908243,-0.08843505,0.17012751,0.035626855,0.04023231,0.007257955,-0.09485764,0.20360431,-0.03760928,-0.036750086,-0.16140598,0.0026923819,-0.5140652,-0.19357447,-0.068456575,-0.14538977,-0.27545312,0.073110156,-0.23418684,-0.052040763,-0.017250404,-0.07166871,-0.19489561,-0.056870285,-0.02965511,0.0060278084,-0.0034118798,-0.021067139,0.22367205,-0.046248708,-0.050504882,0.006138891,-0.0718657,0.14286356,0.16690426,0.020622937,-0.07216985,-0.06461569,-0.1022538,-0.22543342,-0.026977874,-0.2528485,-0.3229209,-0.0062187207,0.2096265,-0.08405489,-0.18377165,0.10131652,0.29396638,-0.064694546,0.37804726,-0.2943079,0.329898,0.19111297,-0.25410578,-0.076696865,-0.029126858,0.36943772,-0.36984205,-0.031155648,0.15567446,0.055870157,0.04075462,-0.14125682,0.017149163,-0.057869196,-0.05568412,-0.07102392,-0.63601166,0.14716066,-0.02017551,0.35302347,0.27955383,0.27817166,-0.032355044,0.24737452,0.15176666,-0.081694745,-0.06662113,-0.087284654,-0.14352307,0.0115897935,0.14844033,2.350701e-06,-0.05476478,-0.07764244,-0.067999095,-0.076449364,0.09600976,0.23040459,0.30594802,-0.3165027,-0.0340347,0.087689675,0.046087515,0.065004736,-0.07630753,0.54579073,-0.17491512,-0.111958474,0.07382057,-0.08157358,-0.21930866,0.06372154,-0.08226197,0.038737934,-0.4491645,0.06043657,0.30454203,0.13819069,-0.23963316,-0.06309139,0.2926483,-0.014823674,-0.07894794,0.12226809,0.034575563,0.18252128,0.16723713,0.065742075,-0.18572329,0.1093737,0.10032132,-0.16063894,-0.4925429,0.14003295,0.11778929,-0.26547065,0.029353745,-0.009595377,0.037142236,0.19704401,0.21128035,-0.21539837,-0.08826792,-0.1748479,-0.24118645,-0.008267652,-0.1234445,-0.2887553,-0.01002067,0.02949669,-0.038840577,-0.17961408,0.041500263,-0.097507395,0.20207542,0.14845127,0.06796419,0.12912855,0.11082175,0.1927503,0.12131527,0.18497314,-0.09433917,0.20249341,0.29758462,0.11550494,0.0076997285,0.0123081645,0.040495306,-0.18460953,-0.41213453,0.077515766,0.07641739,0.16064055,0.34988713,0.071769625,-0.033457357,-0.0071968324,0.27316028,-0.1817298,0.013573466,-0.06255051,0.21327433,0.14888552,0.16420417,-0.2931772,0.17377336,0.19425806,0.097781695,-0.06538514,-0.15391222,-0.27791387,-0.3224379,0.16899522,-0.8543055,0.25974768,-0.061821535,-0.05630221,-0.020264765,0.066499025,0.1028947,0.2963199,0.039485715,0.09396581,-0.00422084,0.33332783,-0.0025368968,0.045836862,0.1534898,0.03515943,-0.11976251,0.26522008,0.018631537,0.07455793,0.25630233,-0.06629343,0.3169508,-0.03715014,0.13238819,-0.23218022,-0.28381276,0.15471831,-0.2450718,0.11800675,-0.35445002,-0.15978266,-0.002927145,0.0039411974,0.08547211,0.084530994,-0.06074665,-0.53325766,-0.17410655,-0.07884511,-0.06769216,-0.22994412,0.22196323,0.35095075,0.029644186,0.16025282,0.5226952,0.49750197,-0.16748916,0.183303,-0.09165722,0.050709654,0.08715845,-0.1615732,-0.18623103,0.20344096,-0.089595735,0.056180704,0.31354335,0.35083824,0.021504015,-0.24676791,0.5780104,-0.11238831,0.09308602,0.13094276,0.080312,0.39074165,-0.034757953,-0.042252153,-0.17698897,0.016006475,-0.32929564,0.10680318,-0.17682812,-0.15887986,0.10243756,0.118431754,0.048213404,-0.14337072,-0.27655965,-0.09531067,-0.06044448,-0.228049,0.16343138,-0.004892382,-0.029162318,-0.1997354,0.061187487,0.05040954,0.09468814,0.32969713,-0.101670474,0.025077254,0.03654945,-0.0811047,0.12589814,-0.033867467,0.24682347,-0.20581491,-0.10065943,-0.5782701,-0.10094977,-0.17512901,-0.0015742582,-0.1499035,-0.03290011,-0.36490327,-0.17006342,0.10724489,-0.16665503,-0.0893026,0.05318616,-0.22759636,0.003547983,-0.071599185,0.049701493,-0.013652558,0.19649002,0.384365,-0.70815974,0.10581485,-0.533255,0.121978305,-0.07499526,0.26056638,0.235727,0.0055105486,-0.17620905,-0.4076239,0.18188474,0.6391566,-0.15357804,0.033478655,0.5231276,-0.11681904,-0.04740983,0.14499685,0.059854627,-0.32314742,-0.08519729,-0.08077281,0.2294942,0.012022731,0.013592721,-0.23529126,-0.0330435,0.31635964,-0.1497213,0.035127506,0.14253639,-0.12858647,0.09313131,-0.10157387,0.20221376,0.05358631,0.07367447,-0.16358891,-0.1817951,-0.24966742,-0.1624039,0.058528397,-0.076762825,0.10244502,0.042187948,0.17848255,-0.0051626223,0.198109,0.3604068,0.15323372,-0.016149316,-0.20882222,0.05633449,0.17583334,0.1259971,-0.5598816,-0.085541375,0.27666005,0.33621982,-0.03646097,-0.05270344,-0.18140727,0.0377523,0.09336065,-0.12964723,-0.02293815,-0.2079561,-0.10342871,-0.1619748,-0.22682041,-0.02129742,0.056156807,0.011221397,0.088132665,0.14777622,0.0016715089,-0.33568692,0.03552912,-0.038933605,0.14038536,0.09768072,0.15165922,0.08074107,0.26635817,-0.06248046,-0.15605901,-0.1099993,-0.0011407686,0.09077308,0.082343236,0.037211098,0.0561255,0.1055192,0.19056992,-0.28707072,-0.29862705,-1.0637847,-0.002254758,-0.31217417,-0.07647188,-0.050797146,0.22279331,-0.04295851,-0.031903997,0.13539888,0.40012342,-0.12098204,-0.031786986,0.074490085,-0.058175802,-0.1767963,0.28767836,-0.028719712,-0.23621187,0.07693985,-0.00807396,-0.09371145,0.18857132,0.07707747,-0.051788926,-0.18276635,-0.14696744,0.021123651,0.24583134,0.10232449,-0.087057,0.029599594,0.049338397,0.16697644,0.17433801,-0.018934853,0.12490171,0.40068263,-0.01698593,0.17227407,0.022189396,-0.16204849,-0.022547737,0.16187681,0.090419136,-0.25766826,-0.1628297,-0.0024667713,-0.19305016,-0.2995715,0.26715228,-0.15315542,0.12280653,-0.19239216,0.0097286,0.34692135,-0.009558493,0.25907692,-0.13694122,0.37637243,0.1518374,-0.16207863,-0.20210542,-0.18136656,-0.2056728,0.63483477,-0.27709427,0.03209348,0.43097615,0.037051506,-0.0043366,0.45655996,0.25000414,-0.0074823448,-0.0014542993,-0.0016114871,0.3384326,0.21961796,-0.07263774,0.13498652,0.16122738,0.024951791,-0.00093719625,-0.011982856,-0.110540316,-0.18498199,0.030024251,0.12096449,0.16804418,0.1306864,0.13033101,0.30827764,-0.4033423,0.10612848,-0.039693076,0.5115342,-0.12820151,0.3921809,-0.19229648,-0.101148054,0.27012268,0.0032559687,-0.7847905,-0.18226215,-0.0037336557,0.23995596,0.02816854,-0.06748358,-0.0820352,0.093624935,0.08352496,0.111017,0.1884915,0.039464794,0.1215183,-0.25910345,0.12847973,-0.15377207,-0.13261896,-0.18355675,-0.0119058015,-0.24632291,-0.32396537,0.14409874,0.04130038,-0.1382328,0.1424072,-0.11922986,0.52106714,-0.001866799,-0.34006077,-0.04125426,-0.2065363,-0.09389396,-0.2901784,0.36051574,-0.14508288,-0.09406042,0.007872895,0.30221283,-0.51109284,-0.08511557,-0.09693623,0.109817445,0.14907016,0.092834756,-0.093065076,-0.15911318,-0.15927653,0.18075293,0.08248395,-0.028461974,-0.23501365,0.28729507,0.11765013,-0.0867245,0.1883658,0.1388824,-0.21788791,-0.5097236,-0.0013074074,-0.2145793,-0.25021386,0.0759296,-0.073513985,0.1492444,0.026270842,-0.24565525,-0.26923215,-0.293318,-0.02104302,0.37844703,-0.09834509,-0.055867825,0.06829362,0.22183017,0.0036642244,-0.05387613,-0.2890198,-0.49595204,0.02747222,0.28591585,0.14252673,-0.16517273,0.010236514,0.015467598,-0.22547051,0.058507092,-0.08494618,-0.12570482,-0.0053984476,-0.09262152,-0.3178066,-0.18813452,-0.13035266,0.023374107,0.13810898,0.008524864,-0.022127336,0.281125,-0.048690803,-0.020722056,0.05334933,-0.024137497,0.30945125,0.1854246,-0.056161154,-0.030902829,0.46643946,-0.20728044,0.29214737,0.015316855,0.3944658,-0.014643281,-0.22125939,-0.07951892,0.10465379,-0.18129359,-0.008548039,0.051353965,0.13554431,-0.5215978,0.084177494,-0.06347725,-0.0831953,-0.2335584,0.17106539,0.1004935,-0.07297178,-0.0844593,0.10371801,0.021414518,0.013816397,0.25906405,-0.11793897,-0.050189815,0.324859,0.1917355,0.042920504,0.22971769,0.03209614,-0.29216897,-0.053068705,0.032384634,0.289017,0.19058257,0.10101287,0.028447663,-0.17457917,0.0037799305,-0.20162871,-0.018704344,-0.07932221,0.031624433,0.001498813,-0.08496368,0.26896653,0.24013126,0.0058793826,-0.008453472,0.1828668,-0.23319621,-0.09700281,-0.28094745,-0.10658607,-0.10967166,-0.37973544,-0.12393817,-0.15009157,-0.21296829,-0.1686318,-0.17087127,-0.0029812658,-0.014123868,-0.04605461,0.14586844,0.01749208,0.09783824,-0.083445966,-0.042143043,0.19491407,-0.05672083,0.22618406,-0.32790568,-0.07392152,-0.17748968,0.22407961,0.33045784,-0.34286416
/kaggle/input/shl-intern-hiring-assessment/Dataset/audios/train/audio_713.wav,2.0,-0.10050012,0.0709069,-0.054587934,0.21040657,0.26242,-0.18267472,0.20303775,-0.1401478,0.18615104,-0.01129237,-0.1406454,0.1268244,-0.4365299,0.16203499,0.20450771,0.13074519,0.14727993,-0.0081187,-0.20065346,-0.17163226,-0.13602059,-0.026122814,0.27948654,0.024767745,0.39162773,-0.00024720165,0.05069314,-0.25797045,0.032021735,-0.20361084,0.089984655,-0.08747716,-0.08390513,0.06703539,0.1358745,-0.022987075,-0.11908976,-0.012581437,0.10346568,-0.032183826,-0.16658685,0.49658984,-0.09916753,-0.425914,-0.14252546,-0.1158048,-0.17007668,0.10981262,-0.05207079,-0.2035048,-0.051869836,0.008465663,0.66730505,-0.043558344,-0.07398129,0.15282245,0.18080167,-0.5195384,-0.052167404,-0.014970134,-0.4503008,0.03510739,-0.13533545,0.3486968,0.21160851,0.13209286,0.01857056,-0.1644465,-0.2845388,0.077607214,0.11882417,0.032895077,0.055193022,0.0062964233,0.21113653,0.17850855,0.07171034,-0.026914498,0.16371758,0.042409215,-0.021222292,0.24625024,0.1631234,-0.024421036,-0.02950106,0.049423687,0.057047028,-0.068079874,-0.09961545,-0.0036834732,-0.1658162,-0.082890004,0.043312665,-0.07095358,0.11170396,0.16923247,-2.1753197,-0.013681038,0.09890909,0.034946956,0.051778235,0.08571696,-0.09968563,0.08897398,0.20407371,-0.021910451,0.22728188,0.18325186,-0.08099277,0.14701617,-0.13342519,-0.004145976,0.4839929,0.11546544,0.022613354,-0.011379978,-0.008074082,-0.2629906,-0.022910684,-0.14836523,-0.22907938,-0.21522684,-0.009240554,-0.15611465,-0.21547845,0.10515495,0.10549008,0.16394319,0.24961886,-0.19859757,0.15706666,0.3593568,-0.23018661,0.053500663,-0.12274494,0.040400643,-0.13719104,0.102939464,0.15115187,-0.28842685,0.009304444,-0.2005041,-0.0929817,0.10532707,0.19635129,0.021263592,-0.795574,-0.05449414,0.04351036,0.29715443,0.39494792,0.14586715,0.11387218,1.1418481,0.15425584,-0.2392217,0.13613057,-0.21641338,-0.13864285,-0.19398464,0.056054365,0.19522725,-0.018439375,-0.05756343,0.0069346423,-0.157616,-0.022773834,-0.15715672,0.3407972,-0.24664761,-0.24000917,-0.21137556,0.045284826,0.08840872,-0.24997757,0.57509035,-0.041325122,-0.036526863,-0.08352247,0.18747145,-0.3806512,-0.13994984,-0.19712903,0.14237007,-0.36122134,-0.0065268828,0.24411976,-0.10145159,0.105207205,0.11418278,0.18950374,-0.04537301,-0.03761988,0.20908174,0.06384173,-0.03621308,0.082595766,-0.004844812,0.04148544,-0.16593923,0.10033038,-0.16531983,-0.4463093,-0.0675855,0.1915745,0.032249205,0.022047209,0.08010186,-0.32574153,-0.068168536,0.19704829,-0.19052075,0.0056442725,-0.046676658,-0.12114684,-0.2215589,-0.13131459,-0.14038657,0.08163948,-0.1984497,0.066377655,-0.04403385,0.052502807,-0.1834664,0.19157258,0.36964417,-0.013956021,-0.02391752,0.0024194713,-0.18085116,-0.11380531,-0.039937492,0.008746105,-0.10789923,0.3086855,0.1195543,-0.054519735,-0.09912624,0.13666682,0.042698435,0.18171751,-0.17948152,0.14581314,-0.034511667,0.12370235,-0.008635165,-0.03980772,0.14923683,0.044380423,-0.14344071,-0.007915031,-0.053556345,-0.051571045,0.032720752,-0.027258316,0.05983189,0.17716204,-0.010561728,0.034994435,-0.007875802,-0.026832737,-0.0014450576,0.03946338,0.03496507,-0.59315675,0.12924673,0.076820694,-0.11784359,-0.18465418,-0.06796336,0.03706285,0.042108107,-0.07029794,0.1256094,0.07288985,0.10096459,0.119502954,-0.05448915,0.081797875,0.052694406,-0.01777246,0.25950596,0.004943941,0.2627945,0.043047454,0.21537156,0.4168903,0.0029626882,0.014740725,-0.24583058,-0.09701273,0.11643744,0.09714954,0.09307563,-0.11152884,0.014944124,-0.06111695,-0.1821138,0.013136393,-0.07445202,-0.13489379,-0.72449666,-0.35074535,-0.34419143,0.03548317,0.15120766,0.11093959,0.18651822,0.045563437,0.029754752,0.46786904,0.10162566,0.19137383,-0.077896275,0.033126008,-0.026883394,0.03657377,-0.020009128,-0.07341217,0.30089894,0.23996454,-0.13991565,-0.19056895,0.06363222,-0.14849463,-0.21696189,0.31198308,-0.20425646,0.036763083,0.1579158,0.021190684,0.29895306,0.025929071,0.042619206,-0.10761009,0.043879997,0.070607625,0.12428097,-0.24463671,0.037407015,-0.008165141,0.35140473,0.15408303,0.018770844,-0.35737917,-0.1251703,-0.044077806,-0.22568429,0.32772803,-0.09643136,-0.04353787,0.04275161,1.4570707,-0.04911336,-0.1415906,0.1318443,-0.12161846,-0.08301601,0.00182717,-0.077669084,0.17522715,0.07702859,0.17689773,-0.17053032,-0.1543668,-0.48432428,-0.036566265,-0.03103398,0.17566177,-0.03522212,-0.1553733,-0.35970742,0.12951535,-0.15243639,-0.4712054,-0.024329515,0.12924774,0.029367141,-0.20593172,-0.1701038,-0.029142722,-0.047787517,0.0079816235,0.15847763,-0.22420947,-0.007641636,-0.29209173,0.14002903,-0.023407433,0.09143067,-0.014218271,0.021378906,-0.014524567,-0.08831587,-0.30125725,1.0485133,0.054720856,-0.40808138,0.61985123,0.1257927,0.04688527,-0.44041184,0.001916156,0.10563685,0.05890773,0.12659681,-0.07950601,-0.18231834,0.12767722,-0.16322644,-0.03656858,0.17554308,0.017836941,0.012069449,-0.14983658,0.018729335,0.034006707,-0.068929076,0.10912016,0.08489369,-0.07057182,-0.09860604,-0.11679413,0.36553714,-0.2622328,0.3290183,0.21368642,-0.09300776,-0.14015698,0.50497425,-0.059984047,0.09496872,0.5340309,0.12655562,0.02080827,0.0025768154,-0.022876397,0.29173967,0.11016999,-0.20600875,-0.36991775,0.03705085,-0.029426994,0.02112472,0.014957716,-0.0980685,0.21917517,-0.06938125,-0.040271286,-0.0034545304,0.3081702,0.2533422,-0.037425324,0.10406891,0.044240303,0.028932543,-0.013749097,0.008783906,-0.11896628,0.12218674,-0.21988823,0.105302885,0.06604693,-0.036052864,0.14189744,-0.47490716,0.29679227,0.37495974,-0.21474922,0.122713976,0.09181543,0.25884682,0.01933003,-0.052641533,-0.18226694,-0.024566574,0.13093899,0.013916424,-0.004564481,-0.11419341,-0.8375822,-0.061630294,-0.24271597,-0.18234381,0.088695146,0.25671932,0.09039565,-0.26873437,0.111061886,0.37098008,-0.08523017,-0.2353432,0.17136765,0.026186949,-0.31133175,0.7625143,0.10873463,-0.31187394,-0.12910472,0.0830224,-0.36170697,0.21689485,0.0040961234,-0.002294017,-0.20065255,-0.14455546,-0.082588606,-0.05030406,-0.13042083,-0.089723006,-0.08987944,-0.12521638,0.1269205,0.122757025,-0.11247691,0.2404017,0.18981744,-0.11986695,0.1893228,0.032830387,-0.10750642,0.07592715,-0.0005238922,0.14976224,-0.23359789,0.082458645,-0.028139764,-0.08304092,-0.16246706,0.057015713,-0.04947316,0.045769088,-0.13582931,-0.01874999,-0.26420107,-0.11258618,0.143424,-0.15843256,0.12363065,0.17014979,-0.62346953,0.07875093,-0.19635442,-0.6521476,1.0397543,-0.13998556,-0.09635759,0.4737619,-0.07582543,-0.20516008,0.4161318,0.12803744,0.14289281,0.03393064,0.11891025,0.32918727,-0.072561435,-0.29731497,0.15240581,0.23669219,-0.0043712845,-0.09053716,0.054159444,0.028599475,-0.20714894,0.30701998,-0.05340949,0.25496754,0.1602081,-0.06863009,0.31830212,-0.35597593,-0.01433518,-0.35336235,0.19994132,0.022221096,0.14768976,0.109757416,-0.45057553,0.055931862,0.3411496,-1.2639387,-0.2177699,0.07510425,0.08184597,-0.07403936,-0.19897611,0.0014043734,0.08267931,0.007275929,0.042706933,0.24251099,0.14942408,-0.13376203,-0.32630137,-0.05605413,0.10372428,-0.1592021,-0.17631832,0.06474698,-0.29304838,-0.082655035,-0.017233172,-0.03620144,-0.009052569,-0.020830762,-0.035667077,-0.13119125,-0.006790369,-0.391279,0.028940003,-0.012645667,0.09544628,-0.40311375,0.30945385,0.05593336,-0.14657272,0.027766693,0.18586841,-0.8337836,-0.12957986,0.00034409863,-0.07257433,0.08278477,0.23829418,0.0744692,-0.155019,-0.032326613,-0.1183969,-0.034884293,-0.097448975,-0.018140363,-0.3183735,0.38293144,-0.008129986,-0.2029765,-0.059756227,0.04497682,-0.2826492,0.10259026,-0.054475207,-0.6211472,0.16457543,-0.18978485,0.21135134,0.019335946,0.015198295,-0.43764088,-0.015842685,0.03855217,-0.085762374,-0.0638584,0.08462623,-0.13781838,0.10226948,-0.12997948,-0.10013486,-0.25476643,-0.58558434,0.2067309,0.25710976,-0.12000439,-0.16987899,-0.24590798,0.112101175,0.106978126,0.035845224,-0.13111174,-0.086561754,-0.3929362,0.20875637,0.1275372,-0.07803168,-0.024899036,-0.1320942,0.2556432,0.015562195,0.17289713,0.029328063,-0.027099183,-0.022162287,-0.02249678,0.3038841,0.084679686,0.02455584,-0.23473448,-0.21459973,0.28277233,-0.63045937,-0.2254436,0.050052658,0.119058155,-0.064216,-0.16658273,0.07489592,0.13588183,-0.2090343,-0.11384962,-0.042915832,0.23787706,0.44006908,0.06352649,0.0050787195,-0.040323406,-0.10462405,0.16242284,0.08609801,0.09708918,-0.11789468,0.17540604,-0.09334235,-0.15433808,0.19350974,-0.07778582,-0.071873255,0.161411,0.078341775,0.15422875,0.084388934,-0.06515644,-0.043162033,0.035281435,-0.047195535,0.10026062,0.23843959,0.13842969,0.12147614,0.04104258,0.19876662,0.023898328,0.23982097,0.1589671,-0.31053883,0.041450083,-0.1261461,0.09399001,0.016422192,-0.08015827,-0.04714694,0.09754311,-0.43248907,-0.46355665,-0.18648387,0.12930067,-0.0023037463,-0.37174672,0.06268791,-0.2476809,-0.06306566,-0.13695101,0.026429417,0.42398596,0.3022343,-0.08412865,-0.034067433,0.24251121,0.30812463,0.028792398,-0.20794466,-0.01413084,-0.14434321,0.24481717,-0.4116784,-0.10934414,-0.11509973,0.57088184,0.054799147,-0.093567714
/kaggle/input/shl-intern-hiring-assessment/Dataset/audios/train/audio_845.wav,2.5,0.021507235,0.09549455,0.23376752,0.035841826,0.091428764,-0.15312316,0.14906831,-0.18605678,-0.28953674,-0.11832151,0.035999823,0.5246238,0.06461717,0.035589352,0.076908626,-0.10840117,0.46697828,-0.0457881,-0.118611455,-0.4348184,-0.15684237,-0.04436716,-0.3347705,0.31191134,0.45973936,-0.04467436,0.11758644,-0.061311964,-0.11313638,0.079008035,-0.33984268,0.030703036,-0.25427306,0.067524225,-0.20740615,0.3089718,-0.18494655,0.00410825,0.2164194,-0.16077596,-0.05731415,0.08690633,-0.17240402,0.0709149,-0.32410765,0.028196076,-0.135476,0.08104292,0.24926141,-0.1689791,-0.043670464,0.3010477,0.32712367,-0.073430814,0.05081266,0.2774366,0.21780321,0.002203712,-0.11476838,-0.14358135,-0.29141527,0.18291019,-0.13570383,0.035570752,-0.35214362,0.07509817,-0.15298717,-0.28897655,-0.11368622,0.17092119,0.0042630085,0.20087829,0.14983942,0.18489498,0.040668588,0.1118626,0.4153041,-0.11325429,-0.13040747,-0.020488292,0.14430963,-0.05651522,0.007359304,-0.020259222,-0.07731017,0.27332714,-0.12446663,-0.08160367,-0.1523026,0.040115554,-0.68390244,-0.0994256,-0.024583723,-0.13433646,-0.17359394,0.09801833,-0.6843477,0.005431276,0.02670342,0.063626304,-0.07945611,-0.2966512,-0.22566073,-0.009782912,0.044724055,0.14497013,-0.016899701,-0.028846957,-0.033342946,0.0076995157,-0.16213347,0.14160304,0.16381447,0.116458856,0.07694995,0.0070971022,-0.08689093,-0.045576345,0.08651123,-0.23354802,-0.10060435,0.0024421578,-0.037823543,-0.03830976,-0.322137,0.15193681,0.1882484,-0.011061374,0.43725392,-0.15181398,0.23357481,0.26466745,-0.19683816,0.048715666,-0.07955001,0.2749326,-0.23151112,0.012946236,0.021968601,0.19528727,-0.09283482,-0.3165923,0.017841965,-0.005546834,-0.025382258,-0.073990226,-0.6038297,0.11953082,-0.3153226,0.31869736,0.3133576,0.12507348,-0.023146613,-0.2544127,0.20488173,-0.0023979072,-0.097494446,-0.22351354,-0.080846556,0.13194318,0.1444237,-0.005814774,0.09949653,0.0017944309,-0.06137284,-0.056768913,0.06520006,0.17461418,0.14565755,-0.39995685,-0.07258176,0.08224829,0.035553277,0.08671114,-0.1280589,0.7573729,0.085879765,-0.007935101,0.09681178,-0.05494347,-0.14156395,0.010579473,0.046161313,0.017499188,-0.26652998,0.09077143,0.30924475,0.112204544,-0.2962168,-0.06277549,0.33157685,-0.042377178,-0.07648521,0.060580622,0.030246181,-0.020596987,0.34294066,-0.010846429,-0.1732811,0.11194932,0.10141198,-0.17868756,-0.3955727,0.12962046,0.041735504,-0.41801023,0.025259728,-0.010194581,-0.07111703,0.019917006,0.36914906,0.025974467,-0.06900668,-0.034750123,-0.36572647,-0.03801058,-0.21071197,-0.18021241,-0.006986655,-0.15200637,-0.017123885,-0.26387307,0.16304778,-0.31053117,0.062127665,0.42568007,0.11953454,0.15881738,0.16147353,0.049043916,-0.012012084,0.16349757,-0.12663884,0.20524088,0.2910193,0.15753509,-0.016200833,0.008534324,0.13991684,-0.030262766,-0.22622393,-0.1418042,0.13742892,0.046626803,0.37588286,0.0681461,-0.08374279,0.026882147,0.28890017,-0.2807954,0.06820711,0.037882157,0.20473114,0.119395,0.19662909,-0.13234326,0.18695277,0.041810203,0.10081986,0.20546003,-0.19902042,-0.18424445,-0.29547268,-0.04586676,-1.1336956,0.25858673,0.062078808,-0.05261253,0.20194604,0.000538577,0.087950766,0.22863224,0.037900385,0.032064803,0.03736269,0.33866167,-0.009985312,-0.37075382,0.18758842,0.18602239,-0.0043051266,0.22416024,-0.25752062,-0.04827463,0.19674413,-0.06380833,0.27779117,0.1257427,0.1397607,-0.48618922,-0.30565315,0.45079026,-0.19672455,0.06563794,-0.5943233,-0.14566673,-0.05525889,0.09853862,0.0782603,-0.04757216,-0.12027545,-0.5424341,-0.1937994,-0.02428458,0.07651933,-0.103422515,0.17732674,0.14741515,-0.020567954,-0.1110213,0.3549749,0.43931824,-0.20912236,0.18273449,-0.06351519,0.072804525,0.089809045,0.0139347855,-0.24664204,0.1627738,-0.13503279,-0.0016482285,0.26458624,0.42718327,0.16125545,-0.2055968,0.36467555,-0.16038783,0.027105253,0.054261137,0.23815311,0.7930334,-0.0011503071,-0.091989346,-0.104953445,-0.20607457,-0.1736904,0.12522447,-0.11628268,-0.2554772,0.20893146,-0.017117094,-0.11175795,-0.13756838,-0.08149115,0.007236595,0.034368403,-0.15915751,0.3542456,0.043859344,-0.012159089,-0.11764997,0.7334067,0.0030249392,0.026562024,0.22171998,-0.0530828,0.05595242,0.07305838,0.09423876,-0.02876171,0.13987704,0.124778375,-0.2551912,0.04902253,-0.918319,-0.084479526,-0.10373454,-0.1534874,-0.1283998,-0.088693224,-0.34435666,-0.09157151,0.019091498,-0.22321598,0.38793492,0.05087078,-0.20139991,0.0282179,-0.12265546,-0.06175277,-0.06262467,0.02300236,0.34364244,-0.59307325,0.26206434,-0.40691653,0.049232457,0.00029712621,0.3344967,0.022501322,0.13021024,-0.22441731,-0.35187092,-0.0049981102,1.0310377,-0.059408333,-0.21188778,0.55292565,-0.15065192,0.002152028,0.12852213,0.05744784,-0.27505887,-0.05928486,-0.027783925,0.13414384,-0.0056757103,0.016983433,-0.17371137,-0.10732588,0.12879956,0.03921258,-0.049302675,-0.051497437,-0.16453749,0.045928363,-0.115369715,0.09505068,0.006975956,-0.010740153,-0.12437125,-0.22029856,-0.047110815,-0.16691825,0.15642811,0.021533212,-0.11833177,-0.17468172,-0.12139513,-0.013327841,0.13935815,0.4401796,0.12687814,-0.07148949,-0.17109796,0.08078951,0.029125603,0.18543492,-0.4495889,0.0058130003,0.18903667,0.2214597,-0.055219214,-0.0041902945,-0.23078473,-0.024634017,0.09645103,-0.08535831,-0.033017512,-0.24831012,0.0878409,-0.12375208,-0.15906101,-0.07756281,0.050835837,0.103642724,0.1201632,0.07805443,0.09744804,-0.37575367,0.075934544,-0.08943918,0.017420633,-0.021886528,0.0886053,0.12032903,0.26372996,-0.10003566,0.093449906,-0.071238525,-0.23589084,-0.033325903,0.03737771,0.09265004,0.04833161,0.10148729,0.04888929,-0.34438315,0.015092022,-1.0011309,0.045488864,-0.31613684,0.01268811,0.016620185,0.32491603,0.0332804,-0.13690898,0.097250976,0.23926139,-0.057964865,0.041827664,-0.013448188,-0.08980948,-0.21235298,0.27525115,-0.00094495056,-0.28649086,0.1285222,0.048105735,-0.2454766,0.15352526,0.13551168,-0.022001563,-0.22874558,-0.19309044,0.05817953,0.31953597,0.07833984,-0.04919749,0.08468216,0.03680544,0.16379645,-0.012590498,-0.032772258,0.11766076,0.51932585,0.19171597,0.089004256,0.1011889,-0.24489196,0.061238952,0.1509009,0.1766437,-0.33633345,-0.20650452,0.16073391,-0.08321981,-0.013369996,0.37363556,-0.073098175,0.09594675,-0.031094918,0.049206704,0.29173547,0.04468752,0.1432978,-0.070963,0.18881679,0.16136959,-0.35057133,-0.08406639,-0.08300065,-0.14867918,0.5610566,-0.18744743,0.1819372,0.5728195,0.1018632,-0.1319005,0.43808404,0.08814511,0.06330387,-0.09221444,0.08607692,0.3474125,0.21575516,-0.18889217,0.0057217637,0.11394477,0.032594357,-0.034343995,-0.16625053,-0.16689469,-0.11777681,0.3245767,-0.077497385,0.17375442,0.12590533,0.16567348,0.3395806,-0.38955355,0.0737716,-0.04747876,0.30297083,-0.09370459,0.37757397,-0.1923338,-0.0423099,0.16764475,-0.062246595,-0.5309747,-0.1762195,0.09468843,-0.01174999,0.010367747,-0.1352472,-0.19612959,0.15144125,0.08004565,0.006006231,0.13603704,-0.09954097,0.11784835,-0.27014524,0.05881085,-0.12793678,-0.09208876,-0.058660887,-0.057480432,-0.15626311,-0.15801468,0.11265275,-0.038358465,-0.19013904,0.14408688,-0.060123887,0.35893613,-0.051429253,-0.28243563,-0.05595948,-0.100679785,-0.056672957,-0.17627741,0.32807177,-0.5872239,-0.20586249,0.0716244,0.297321,-0.63057494,-0.012893151,-0.08406808,0.24273215,0.063589975,-0.016428523,-0.011115951,-0.13023803,-0.10464035,0.09175874,0.11496992,0.009163189,-0.2182711,0.4889093,0.11665039,-0.065799296,0.23870945,0.15225874,-0.11459508,-0.39316416,-0.029357716,-0.035128657,-0.34006694,0.16323316,-0.090398245,0.082121834,0.05526374,-0.03659057,-0.43468136,-0.51737565,-0.18520123,0.33533037,-0.05325552,-0.13671494,-0.10911369,0.11736495,-0.047586992,-0.2768208,-0.40408596,-0.68901575,-0.06086773,0.055322647,0.25804564,-0.18246764,-0.12393426,-0.24754453,-0.22759719,0.18145074,-0.10832569,-0.16674913,-0.07943559,-0.23271467,-0.14696707,-0.05906925,-0.11594397,-0.0037381167,0.08107331,0.25548428,0.10875198,0.086205274,0.06937168,0.14126837,0.24740769,0.14747562,0.45865956,-0.07668786,0.039942615,-0.10187869,0.37213624,-0.12167825,0.2201388,0.13174503,0.3771197,0.02792716,-0.22994156,-0.021618685,0.1706759,0.033402473,-0.11711889,0.09108319,0.04337327,-0.15224555,0.08538389,0.044582307,-0.058471348,-0.16445011,0.14610289,0.021447731,0.04398684,-0.18030086,0.08301127,-0.03006515,-0.00943291,-0.30583453,-0.048425745,0.019464903,0.055636063,0.12843254,0.29610568,-0.077018425,0.046393283,-0.19519626,-0.12810427,-0.060554557,0.21606442,0.18498912,-0.12535901,-0.028674832,-0.1341072,-0.10910577,-0.1986126,-0.03833568,-0.06757517,0.10186364,0.044168226,-0.12229248,0.3351734,0.20911697,0.00272559,-0.009699726,0.28317893,0.065295644,-0.24921992,-0.27904224,-0.07954542,0.29097226,-0.2017049,-0.16043809,-0.1567053,-0.18882163,-0.20281662,-0.2748966,0.04977038,-0.05535328,0.095909946,0.06321823,-0.024282368,-0.08059384,-0.075137965,0.21171947,0.106534384,-0.116071835,0.2583171,-0.3473181,-0.13712768,-0.0953315,0.27704364,0.2670765,-0.07805331
/kaggle/input/shl-intern-hiring-assessment/Dataset/audios/train/audio_150.wav,2.0,0.10621315,-0.009623125,0.38532603,0.44089943,-0.10872373,0.07262561,0.35075966,-0.072988704,-0.21613477,-0.0027914266,0.1571776,0.24610315,0.052865278,0.02980894,0.0459519,-0.0006004064,0.2990361,-0.043342706,-0.026351813,-0.24963872,-0.3121981,-0.036390256,0.2986082,0.11131375,0.73755527,0.16510019,-0.3618066,-0.10196353,-0.40279698,0.17497599,-0.3559004,0.14167573,0.1477024,0.040568173,0.17815353,0.15241739,-0.13191696,-0.027143694,0.0027781657,-0.18597989,-0.16648205,0.4252856,-0.17475761,-0.13949455,-0.23066373,-0.1892972,-0.069242805,0.27848488,-0.05899657,-0.18379855,0.025018549,0.040761594,0.29983917,-0.0104981465,0.1754679,0.061107438,0.17905465,-0.41023803,-0.05051456,-0.14176211,-0.323521,0.12766239,0.09240868,-0.038955018,-0.04877203,-0.049326092,-0.066062704,-0.21669613,0.05474311,0.16492757,0.2981135,0.13472778,0.11817677,0.30245423,0.21445575,0.0607396,-0.031383764,-0.25371423,-0.054083288,0.07066926,0.036856547,0.4338157,0.16121644,-0.23934051,-0.09973769,0.36508393,0.15882371,-0.015138649,-0.09212784,0.05898446,-0.526686,-0.1634692,-0.09559821,-0.2661769,-0.11900617,0.06648702,-0.36818483,0.022823764,0.238549,0.120988235,-0.5667892,-0.08090713,0.22309093,0.22767143,-0.019277155,0.2231481,0.31923443,0.062411096,-0.14490977,-0.034248173,-0.15955019,0.15405695,0.13912311,0.080313,0.01673534,-0.15726545,0.041508134,-0.0905651,-0.05597878,-0.059732784,-0.13904145,0.11694564,0.021583099,-0.12917033,-0.40552068,0.4913061,-0.13441768,0.010387955,0.03830984,0.1116648,0.245339,-0.023870602,-0.42952818,0.033415753,0.11042823,-0.11553179,-0.1581944,-0.09401741,0.1146812,-0.23683706,-0.021538524,-0.09704385,-0.1831918,-0.020112278,0.21951798,0.024258098,-0.7674206,-0.20893848,-0.08547868,-0.05940025,-0.113519914,0.32173944,-0.036602214,0.60349125,0.100294724,-0.25162327,-0.0063500134,-0.27535498,0.019959012,-0.0076601063,0.08381345,0.1383685,-0.05853806,0.09431506,0.15987025,0.044273052,0.25212055,-0.18419166,-0.035616033,-0.2440276,-0.19748105,-0.2340322,0.27939388,0.07439495,-0.044906843,0.42886925,0.06008038,0.004010595,0.048802458,-0.09487519,-0.19149086,-0.045501363,-0.18562561,0.13531363,-0.4141924,-0.026918171,0.3947144,0.11644328,-0.23434451,0.25263318,-0.1903899,0.0061551263,-0.0065460047,0.20525429,0.14949317,0.1863998,-0.063984066,0.17656465,-0.14328969,-0.018871155,0.18690786,-0.042206623,-0.47992516,0.4255312,0.17602661,0.122611515,0.15470847,-0.048273046,-0.025827097,-0.0013157651,-0.13250251,-0.13344188,0.11615255,0.04590718,-0.15952247,-0.056381993,0.00628568,-0.23029946,-0.07746041,0.19129382,0.15433839,-0.18339185,-0.04021532,-0.010168553,0.2161554,0.2700776,0.15951957,-0.040108185,-0.32021537,-0.11955969,-0.06517677,-0.099053904,-0.15779103,-0.014003506,0.18525161,0.1727039,-0.01565099,-0.09379907,0.026816703,0.16694586,-0.07868178,0.5084694,0.1631213,0.045267526,0.13174607,0.0023410646,-0.116623536,0.058018867,0.078065254,-0.5458839,0.035823777,0.025784593,0.09538411,0.26673362,-0.07611352,-0.09630351,-0.081507616,-0.17691348,0.034803215,-0.18573831,-0.05449815,-0.2570424,0.05309188,-0.197811,-0.9449535,0.21059157,0.1783136,0.12528639,0.31745434,-0.04664713,0.059609048,0.10904812,-0.13987824,0.030813975,-0.2898177,0.11350766,-0.09626855,-0.16258319,-0.086602375,0.19631334,0.035690043,0.13794492,-0.19956599,-0.061398387,0.03885938,0.23507664,0.7407009,0.049375486,0.08676691,-0.4020732,-0.34311873,0.07182283,-0.1255568,0.14170256,-0.5262741,0.22113703,-0.011613049,-0.22085255,-0.1969961,-0.023854619,-0.25468788,-0.5335557,-0.050092466,0.31612676,0.25381565,-0.05360346,0.004499337,0.36354026,0.02997322,-0.1937321,0.34140804,0.33731982,-0.11267472,-0.026245968,-0.18361896,-0.03806497,0.019400932,-0.06536626,-0.2129623,0.49191052,-0.084078185,0.023340931,-0.08563458,0.16724081,0.22986357,-0.1278207,0.5652943,0.014617541,0.057602007,-0.02745545,-0.00912192,0.112801075,-0.15698816,0.1250323,0.13146017,-0.45805398,0.022414247,0.15230541,0.19485565,-0.059533775,-0.013243049,0.24306828,-0.21092932,0.08635627,-0.36636803,-0.025219137,-0.18623567,-0.12401516,0.5465664,0.037831053,0.042941257,-0.17852898,0.6824783,-0.36925602,0.036902506,0.34821835,-0.042906314,-0.0007154127,0.110770755,0.16117436,-0.09505541,0.2607812,0.17528999,-0.04035891,-0.11667968,-0.942413,-0.100339696,-0.16617393,0.23315029,0.06632712,0.120336644,-0.17545417,0.2614048,-0.27061695,-0.27629605,-0.49640045,0.08671209,-0.018481836,-0.080664225,-0.34901953,-0.19027841,-0.13874078,0.036029812,0.11459476,-0.109244004,0.014444068,-0.006442748,0.20114598,-0.22010387,-0.2369979,-0.16888909,0.022344455,-0.12229997,-0.07619751,-0.5655676,1.098489,-0.16385399,-0.023627665,0.27137405,0.11622045,-0.26663616,0.29096955,-0.1284077,-0.24652101,-0.086644836,-0.24428749,-0.0007040568,0.09893607,-0.02826823,-0.07060612,0.09826691,0.082826436,0.14695093,-0.06049286,0.27897492,-0.04628012,-0.0495096,-0.3656718,0.059956197,-0.05026889,0.12603086,-0.1048947,-0.25364143,0.34178704,0.06996297,0.101755925,0.18890807,-0.08761698,0.086027876,0.30441248,-0.07004064,0.036631413,0.57496166,-0.021662084,0.128564,-0.18173206,0.06574599,0.20501406,0.040987324,-0.5285836,-0.19122432,-0.13231885,-0.08611436,-0.01809399,0.043428104,-0.09170625,0.23716414,0.2867224,-0.095858224,-0.10483437,-0.061201055,-0.19597435,-0.072112866,-0.011560632,0.0692886,-0.04909689,-0.041625638,0.14147197,-0.08494222,-0.2475141,-0.26526466,0.031244114,-0.12413609,-0.050478,-0.009430792,0.08390944,0.30577055,0.34741583,-0.0022194146,0.2103265,-0.06928532,0.11435904,-0.005090245,0.35587138,-0.075394854,0.2444532,0.024051532,0.21300115,-0.23577671,0.06703836,-0.7121597,0.0071621845,-0.1927095,-0.08427194,0.03166132,0.281435,0.2383674,-0.3252257,-0.04629006,0.123794265,-0.037429098,-0.2598401,0.09057833,0.08331769,-0.25213176,0.5682071,0.004130046,-0.2382741,0.23254848,-0.08621278,0.006142335,0.053217903,0.12035533,0.011059197,-0.054178253,0.00136942,0.06505497,0.063730575,0.04410072,-0.074729756,0.008120961,-0.014624359,0.17614472,-0.106762424,-0.119793706,-0.0032527929,0.27994558,-0.048492122,-0.05037157,0.2649423,-0.13042296,0.04392224,0.15577646,0.111675374,0.0015334119,0.35259774,-0.18366845,0.02575754,-0.20902808,0.123986326,-0.03585019,-0.0695548,-0.07231871,0.14926507,0.050739117,0.09395997,-0.028428366,-0.13874555,0.19546652,0.1366856,-0.57656527,0.019824117,0.16967368,-0.697503,-0.105281405,-0.20142753,-0.23314324,0.9381141,0.32108504,0.114932425,0.27516186,-0.067581445,0.22207004,0.014950569,0.27482778,0.22795375,-0.015200322,-0.22604235,0.18493205,0.077290736,0.09385391,-0.21793656,-0.14035664,-0.12665415,-0.053199884,0.3064067,0.0068292483,0.37717065,0.030506512,0.02060973,0.20456132,-0.29728052,0.15384084,0.10652358,0.3862449,-0.099964574,0.1218393,-0.048953563,-0.22081466,0.07499075,-0.049040813,-1.5722746,-0.11306909,0.07609395,0.052356426,-0.13516417,0.11758543,-0.2019184,0.08635319,0.077706605,0.037115127,0.027331151,-0.0043802247,0.0075150807,0.008723905,0.111234024,-0.068255246,0.05868483,0.12855034,-0.3975232,-0.14051096,-0.06407718,0.1749587,0.17031473,0.14633434,0.05552832,-0.025419092,0.26390067,-0.017545786,-0.41574386,-0.05519886,-0.0027847618,0.09722309,-0.12138207,0.052478753,-0.3008499,-0.09440735,-0.042099725,-0.016593765,-0.9616505,-0.28343683,-0.016365914,0.034515366,0.05120353,0.14037378,-0.08588088,-0.044153884,0.012407612,0.5112135,-0.05676051,0.07310829,-0.022305056,0.070585,0.03476529,-0.31877798,-0.12868851,-0.23537123,-0.21369523,-0.24294041,0.015404261,-0.04238995,-0.28777826,0.36296582,-0.19848618,-0.21898997,-0.11901637,0.20056115,-0.24410833,-0.12853573,-0.30011117,-0.05484774,-0.18032943,0.1729932,-0.36690563,-0.046725903,-0.039783664,0.102808885,-0.3312523,-0.79930776,0.00407863,-0.12286933,-0.16762169,-0.20785834,-0.20565493,0.15352812,0.0061120163,0.019993639,0.09692426,-0.11195054,-0.018808095,0.101532124,0.075989924,-0.009406712,-0.022985473,-0.08687355,0.07130333,-0.045965444,0.27955627,-0.0077521484,-0.010493859,0.13530001,0.17003003,0.23420885,0.23958935,0.41861787,-0.2625029,-0.23794203,0.16957799,-1.16098,-0.08441131,-0.05517818,0.2043367,-0.09857683,0.058841087,-0.023693008,0.12002528,-0.21899639,0.08897775,-0.024650957,0.11884484,0.10024588,0.024403725,0.1826807,-0.16967008,0.053662606,0.057858247,-0.025143543,-0.08290817,0.0027479788,0.29422164,-0.18333583,0.024019292,0.12494118,-0.13520056,-0.04579034,-0.06745926,0.09872979,0.097558334,-0.009361755,-0.056867857,-0.17109434,0.19594131,0.14042467,0.17380394,-0.20526932,-0.19930448,0.102800146,-0.016718514,0.20735449,-0.07971134,-0.044487096,0.097404845,-0.020980425,0.041262828,-0.14819717,0.09360055,0.24764298,-0.064689316,0.19717693,0.06766553,0.17816049,-0.528055,-0.14956366,-0.061892305,0.21148978,-0.34718543,0.06706776,-0.37856713,0.16374339,-0.16374479,0.12675335,0.044780657,0.14450504,0.027211823,0.11010843,-0.051080603,0.04983755,0.03732296,-0.08950429,-0.018871257,-0.1503302,-0.12621076,-0.37961948,-0.039584707,-0.16416869,0.42916334,0.013265792,-0.0068428647
